%YAML:1.0
---
opencv_ml_rtrees:
   format: 3
   is_classifier: 1
   var_all: 61
   var_count: 60
   ord_var_count: 60
   cat_var_count: 1
   training_params:
      use_surrogates: 0
      max_categories: 10
      regression_accuracy: 0.
      max_depth: 10
      min_sample_count: 10
      cross_validation_folds: 0
      nactive_vars: 0
   global_var_idx: 1
   var_idx: [ 0, 1, 2, 3, 4, 5, 6, 7, 8, 9, 10, 11, 12, 13, 14, 15, 16,
       17, 18, 19, 20, 21, 22, 23, 24, 25, 26, 27, 28, 29, 30, 31, 32,
       33, 34, 35, 36, 37, 38, 39, 40, 41, 42, 43, 44, 45, 46, 47, 48,
       49, 50, 51, 52, 53, 54, 55, 56, 57, 58, 59 ]
   var_type: [ 0, 0, 0, 0, 0, 0, 0, 0, 0, 0, 0, 0, 0, 0, 0, 0, 0, 0, 0,
       0, 0, 0, 0, 0, 0, 0, 0, 0, 0, 0, 0, 0, 0, 0, 0, 0, 0, 0, 0, 0, 0,
       0, 0, 0, 0, 0, 0, 0, 0, 0, 0, 0, 0, 0, 0, 0, 0, 0, 0, 0, 1 ]
   cat_ofs: [ 0, 0, 0, 0, 0, 0, 0, 0, 0, 0, 0, 0, 0, 0, 0, 0, 0, 0, 0, 0,
       0, 0, 0, 0, 0, 0, 0, 0, 0, 0, 0, 0, 0, 0, 0, 0, 0, 0, 0, 0, 0, 0,
       0, 0, 0, 0, 0, 0, 0, 0, 0, 0, 0, 0, 0, 0, 0, 0, 0, 0, 0, 0, 0, 0,
       0, 0, 0, 0, 0, 0, 0, 0, 0, 0, 0, 0, 0, 0, 0, 0, 0, 0, 0, 0, 0, 0,
       0, 0, 0, 0, 0, 0, 0, 0, 0, 0, 0, 0, 0, 0, 0, 0, 0, 0, 0, 0, 0, 0,
       0, 0, 0, 0, 0, 0, 0, 0, 0, 0, 0, 0 ]
   class_labels: [ 0, 1, 2, 3 ]
   missing_subst: [ 0., 0., 0., 0., 0., 0., 0., 0., 0., 0., 0., 0., 0.,
       0., 0., 0., 0., 0., 0., 0., 0., 0., 0., 0., 0., 0., 0., 0., 0.,
       0., 0., 0., 0., 0., 0., 0., 0., 0., 0., 0., 0., 0., 0., 0., 0.,
       0., 0., 0., 0., 0., 0., 0., 0., 0., 0., 0., 0., 0., 0., 0., 0. ]
   oob_error: 3.8554216867469882e-01
   ntrees: 200
   trees:
      -
         nodes:
            -
               depth: 0
               value: 3.
               norm_class_idx: 3
               splits:
                  - { var:8, quality:1.0683035278320313e+02,
                      le:6.3315441894531250e+02 }
            -
               depth: 1
               value: 3.
               norm_class_idx: 3
               splits:
                  - { var:12, quality:7.1151725769042969e+01,
                      le:2.8688188476562500e+03 }
            -
               depth: 2
               value: 1.
               norm_class_idx: 1
            -
               depth: 2
               value: 3.
               norm_class_idx: 3
               splits:
                  - { var:54, quality:6.9385604858398438e+01, le:134. }
            -
               depth: 3
               value: 3.
               norm_class_idx: 3
               splits:
                  - { var:32, quality:4.7041667938232422e+01,
                      le:5.2432924509048462e-01 }
            -
               depth: 4
               value: 0.
               norm_class_idx: 0
            -
               depth: 4
               value: 3.
               norm_class_idx: 3
               splits:
                  - { var:44, quality:4.6400001525878906e+01,
                      le:3.8109841346740723e+00 }
            -
               depth: 5
               value: 3.
               norm_class_idx: 3
            -
               depth: 5
               value: 3.
               norm_class_idx: 3
            -
               depth: 3
               value: 3.
               norm_class_idx: 3
               splits:
                  - { var:41, quality:2.7316667556762695e+01,
                      le:2.2843647003173828e+00 }
            -
               depth: 4
               value: 3.
               norm_class_idx: 3
               splits:
                  - { var:35, quality:2.4962963104248047e+01,
                      le:6.6942143440246582e-01 }
            -
               depth: 5
               value: 2.
               norm_class_idx: 2
            -
               depth: 5
               value: 3.
               norm_class_idx: 3
               splits:
                  - { var:11, quality:2.5076923370361328e+01,
                      le:5.7450000000000000e+02 }
            -
               depth: 6
               value: 2.
               norm_class_idx: 2
            -
               depth: 6
               value: 3.
               norm_class_idx: 3
               splits:
                  - { var:0, quality:26., le:1.1264450683593750e+03 }
            -
               depth: 7
               value: 3.
               norm_class_idx: 3
            -
               depth: 7
               value: 2.
               norm_class_idx: 2
            -
               depth: 4
               value: 2.
               norm_class_idx: 2
            -
               depth: 1
               value: 2.
               norm_class_idx: 2
               splits:
                  - { var:40, quality:4.8778766632080078e+01,
                      le:-1.1191961765289307e+00 }
            -
               depth: 2
               value: 0.
               norm_class_idx: 0
               splits:
                  - { var:22, quality:2.9140350341796875e+01,
                      le:1.0315211117267609e-01 }
            -
               depth: 3
               value: 0.
               norm_class_idx: 0
               splits:
                  - { var:44, quality:2.7507936477661133e+01,
                      le:2.5086500167846680e+01 }
            -
               depth: 4
               value: 0.
               norm_class_idx: 0
               splits:
                  - { var:25, quality:2.2415584564208984e+01,
                      le:7.3892247676849365e-01 }
            -
               depth: 5
               value: 2.
               norm_class_idx: 2
               splits:
                  - { var:8, quality:1.5454545021057129e+01,
                      le:9.0641967773437500e+02 }
            -
               depth: 6
               value: 2.
               norm_class_idx: 2
               splits:
                  - { var:11, quality:11., le:877. }
            -
               depth: 7
               value: 0.
               norm_class_idx: 0
            -
               depth: 7
               value: 2.
               norm_class_idx: 2
            -
               depth: 6
               value: 0.
               norm_class_idx: 0
               splits:
                  - { var:26, quality:9.6666669845581055e+00,
                      le:2.2233400344848633e+00 }
            -
               depth: 7
               value: 2.
               norm_class_idx: 2
            -
               depth: 7
               value: 0.
               norm_class_idx: 0
            -
               depth: 5
               value: 0.
               norm_class_idx: 0
               splits:
                  - { var:35, quality:14., le:8.7520658969879150e-01 }
            -
               depth: 6
               value: 1.
               norm_class_idx: 1
            -
               depth: 6
               value: 0.
               norm_class_idx: 0
            -
               depth: 4
               value: 1.
               norm_class_idx: 1
               splits:
                  - { var:10, quality:1.3725000381469727e+01,
                      le:4.4950000000000000e+02 }
            -
               depth: 5
               value: 0.
               norm_class_idx: 0
            -
               depth: 5
               value: 1.
               norm_class_idx: 1
               splits:
                  - { var:2, quality:1.4142857551574707e+01, le:1077. }
            -
               depth: 6
               value: 1.
               norm_class_idx: 1
               splits:
                  - { var:20, quality:14., le:5.4439795017242432e-01 }
            -
               depth: 7
               value: 1.
               norm_class_idx: 1
            -
               depth: 7
               value: 0.
               norm_class_idx: 0
            -
               depth: 6
               value: 0.
               norm_class_idx: 0
            -
               depth: 3
               value: 1.
               norm_class_idx: 1
            -
               depth: 2
               value: 2.
               norm_class_idx: 2
               splits:
                  - { var:46, quality:3.0606060028076172e+01,
                      le:1.0543849945068359e+01 }
            -
               depth: 3
               value: 2.
               norm_class_idx: 2
               splits:
                  - { var:46, quality:3.0787878036499023e+01,
                      le:3.9059337973594666e-01 }
            -
               depth: 4
               value: 3.
               norm_class_idx: 3
               splits:
                  - { var:28, quality:1.5800000190734863e+01,
                      le:1.9132202863693237e-01 }
            -
               depth: 5
               value: 2.
               norm_class_idx: 2
               splits:
                  - { var:37, quality:1.3736842155456543e+01,
                      le:3.2071650028228760e-01 }
            -
               depth: 6
               value: 1.
               norm_class_idx: 1
            -
               depth: 6
               value: 2.
               norm_class_idx: 2
               splits:
                  - { var:58, quality:1.1931818008422852e+01,
                      le:5.9500000000000000e+01 }
            -
               depth: 7
               value: 3.
               norm_class_idx: 3
            -
               depth: 7
               value: 2.
               norm_class_idx: 2
               splits:
                  - { var:51, quality:11., le:4.3455120849609375e+02 }
            -
               depth: 8
               value: 2.
               norm_class_idx: 2
            -
               depth: 8
               value: 0.
               norm_class_idx: 0
            -
               depth: 5
               value: 3.
               norm_class_idx: 3
            -
               depth: 4
               value: 2.
               norm_class_idx: 2
               splits:
                  - { var:58, quality:2.5600000381469727e+01,
                      le:7.1500000000000000e+01 }
            -
               depth: 5
               value: 2.
               norm_class_idx: 2
            -
               depth: 5
               value: 1.
               norm_class_idx: 1
            -
               depth: 3
               value: 1.
               norm_class_idx: 1
      -
         nodes:
            -
               depth: 0
               value: 3.
               norm_class_idx: 3
               splits:
                  - { var:15, quality:9.3108604431152344e+01, le:3398. }
            -
               depth: 1
               value: 0.
               norm_class_idx: 0
               splits:
                  - { var:42, quality:4.2492610931396484e+01,
                      le:-4.4675769805908203e+00 }
            -
               depth: 2
               value: 0.
               norm_class_idx: 0
               splits:
                  - { var:56, quality:3.4039215087890625e+01,
                      le:1.0864046478271484e+02 }
            -
               depth: 3
               value: 1.
               norm_class_idx: 1
               splits:
                  - { var:51, quality:1.8821052551269531e+01,
                      le:4.0556231689453125e+02 }
            -
               depth: 4
               value: 0.
               norm_class_idx: 0
            -
               depth: 4
               value: 1.
               norm_class_idx: 1
               splits:
                  - { var:32, quality:19., le:5.5813789367675781e-01 }
            -
               depth: 5
               value: 2.
               norm_class_idx: 2
            -
               depth: 5
               value: 1.
               norm_class_idx: 1
            -
               depth: 3
               value: 0.
               norm_class_idx: 0
               splits:
                  - { var:3, quality:2.3741935729980469e+01,
                      le:1.4855000000000000e+03 }
            -
               depth: 4
               value: 0.
               norm_class_idx: 0
               splits:
                  - { var:17, quality:2.3896551132202148e+01,
                      le:5.9046497344970703e+00 }
            -
               depth: 5
               value: 2.
               norm_class_idx: 2
            -
               depth: 5
               value: 0.
               norm_class_idx: 0
               splits:
                  - { var:59, quality:2.4250000000000000e+01,
                      le:1.8150000000000000e+02 }
            -
               depth: 6
               value: 0.
               norm_class_idx: 0
            -
               depth: 6
               value: 0.
               norm_class_idx: 0
            -
               depth: 4
               value: 2.
               norm_class_idx: 2
            -
               depth: 2
               value: 2.
               norm_class_idx: 2
               splits:
                  - { var:2, quality:2.2741935729980469e+01,
                      le:9.7150000000000000e+02 }
            -
               depth: 3
               value: 0.
               norm_class_idx: 0
            -
               depth: 3
               value: 2.
               norm_class_idx: 2
               splits:
                  - { var:47, quality:2.3896551132202148e+01,
                      le:4.9076560974121094e+01 }
            -
               depth: 4
               value: 2.
               norm_class_idx: 2
               splits:
                  - { var:51, quality:2.3500000000000000e+01,
                      le:5.9010757446289063e+01 }
            -
               depth: 5
               value: 0.
               norm_class_idx: 0
            -
               depth: 5
               value: 2.
               norm_class_idx: 2
               splits:
                  - { var:4, quality:2.4222221374511719e+01,
                      le:1.0959418945312500e+03 }
            -
               depth: 6
               value: 2.
               norm_class_idx: 2
               splits:
                  - { var:22, quality:2.4079999923706055e+01,
                      le:1.4010313153266907e-01 }
            -
               depth: 7
               value: 2.
               norm_class_idx: 2
               splits:
                  - { var:45, quality:25., le:1.8862007856369019e+00 }
            -
               depth: 8
               value: 0.
               norm_class_idx: 0
            -
               depth: 8
               value: 2.
               norm_class_idx: 2
            -
               depth: 7
               value: 1.
               norm_class_idx: 1
            -
               depth: 6
               value: 0.
               norm_class_idx: 0
            -
               depth: 4
               value: 1.
               norm_class_idx: 1
            -
               depth: 1
               value: 3.
               norm_class_idx: 3
               splits:
                  - { var:44, quality:7.0390625000000000e+01,
                      le:1.7400676012039185e+00 }
            -
               depth: 2
               value: 1.
               norm_class_idx: 1
               splits:
                  - { var:51, quality:12., le:4.3932678222656250e+01 }
            -
               depth: 3
               value: 3.
               norm_class_idx: 3
            -
               depth: 3
               value: 1.
               norm_class_idx: 1
            -
               depth: 2
               value: 3.
               norm_class_idx: 3
               splits:
                  - { var:25, quality:6.9412750244140625e+01,
                      le:4.1159284114837646e-01 }
            -
               depth: 3
               value: 2.
               norm_class_idx: 2
               splits:
                  - { var:18, quality:1.8684209823608398e+01,
                      le:2.7867658615112305e+01 }
            -
               depth: 4
               value: 3.
               norm_class_idx: 3
               splits:
                  - { var:33, quality:1.4076923370361328e+01,
                      le:5.2096951752901077e-02 }
            -
               depth: 5
               value: 3.
               norm_class_idx: 3
               splits:
                  - { var:29, quality:1.1666666984558105e+01,
                      le:1.1807202547788620e-01 }
            -
               depth: 6
               value: 2.
               norm_class_idx: 2
            -
               depth: 6
               value: 3.
               norm_class_idx: 3
            -
               depth: 5
               value: 2.
               norm_class_idx: 2
            -
               depth: 4
               value: 2.
               norm_class_idx: 2
            -
               depth: 3
               value: 3.
               norm_class_idx: 3
               splits:
                  - { var:52, quality:5.7362712860107422e+01,
                      le:2.4677706909179688e+02 }
            -
               depth: 4
               value: 3.
               norm_class_idx: 3
               splits:
                  - { var:12, quality:4.4465686798095703e+01,
                      le:2.8782871093750000e+03 }
            -
               depth: 5
               value: 2.
               norm_class_idx: 2
            -
               depth: 5
               value: 3.
               norm_class_idx: 3
               splits:
                  - { var:18, quality:4.2904346466064453e+01,
                      le:3.0590919494628906e+01 }
            -
               depth: 6
               value: 3.
               norm_class_idx: 3
               splits:
                  - { var:51, quality:4.1136363983154297e+01,
                      le:5.1749938964843750e+02 }
            -
               depth: 7
               value: 3.
               norm_class_idx: 3
               splits:
                  - { var:42, quality:4.1047618865966797e+01,
                      le:-5.2266025543212891e+00 }
            -
               depth: 8
               value: 1.
               norm_class_idx: 1
            -
               depth: 8
               value: 3.
               norm_class_idx: 3
               splits:
                  - { var:12, quality:4.0666667938232422e+01,
                      le:3.3183959960937500e+03 }
            -
               depth: 9
               value: 3.
               norm_class_idx: 3
            -
               depth: 9
               value: 3.
               norm_class_idx: 3
            -
               depth: 7
               value: 2.
               norm_class_idx: 2
            -
               depth: 6
               value: 2.
               norm_class_idx: 2
            -
               depth: 4
               value: 3.
               norm_class_idx: 3
               splits:
                  - { var:6, quality:2.0833333969116211e+01,
                      le:7.6350000000000000e+02 }
            -
               depth: 5
               value: 2.
               norm_class_idx: 2
               splits:
                  - { var:2, quality:1.2533333778381348e+01,
                      le:9.8350000000000000e+02 }
            -
               depth: 6
               value: 3.
               norm_class_idx: 3
            -
               depth: 6
               value: 2.
               norm_class_idx: 2
            -
               depth: 5
               value: 3.
               norm_class_idx: 3
               splits:
                  - { var:0, quality:1.7200000762939453e+01,
                      le:1.1577047119140625e+03 }
            -
               depth: 6
               value: 3.
               norm_class_idx: 3
               splits:
                  - { var:43, quality:1.6444444656372070e+01,
                      le:1.9514480590820313e+01 }
            -
               depth: 7
               value: 3.
               norm_class_idx: 3
               splits:
                  - { var:52, quality:1.6117647171020508e+01,
                      le:2.5592605590820313e+02 }
            -
               depth: 8
               value: 2.
               norm_class_idx: 2
            -
               depth: 8
               value: 3.
               norm_class_idx: 3
               splits:
                  - { var:37, quality:1.5666666984558105e+01,
                      le:6.7543387413024902e-01 }
            -
               depth: 9
               value: 3.
               norm_class_idx: 3
            -
               depth: 9
               value: 3.
               norm_class_idx: 3
            -
               depth: 7
               value: 0.
               norm_class_idx: 0
            -
               depth: 6
               value: 0.
               norm_class_idx: 0
      -
         nodes:
            -
               depth: 0
               value: 3.
               norm_class_idx: 3
               splits:
                  - { var:8, quality:1.0301913452148438e+02,
                      le:6.5137646484375000e+02 }
            -
               depth: 1
               value: 3.
               norm_class_idx: 3
               splits:
                  - { var:12, quality:6.9571968078613281e+01,
                      le:2.8442985839843750e+03 }
            -
               depth: 2
               value: 2.
               norm_class_idx: 2
               splits:
                  - { var:3, quality:8.1999998092651367e+00,
                      le:1.1645000000000000e+03 }
            -
               depth: 3
               value: 3.
               norm_class_idx: 3
            -
               depth: 3
               value: 2.
               norm_class_idx: 2
            -
               depth: 2
               value: 3.
               norm_class_idx: 3
               splits:
                  - { var:19, quality:6.8408599853515625e+01,
                      le:2.8430006027221680e+01 }
            -
               depth: 3
               value: 2.
               norm_class_idx: 2
            -
               depth: 3
               value: 3.
               norm_class_idx: 3
               splits:
                  - { var:20, quality:6.9888885498046875e+01,
                      le:7.3799830675125122e-01 }
            -
               depth: 4
               value: 3.
               norm_class_idx: 3
               splits:
                  - { var:40, quality:6.9592124938964844e+01,
                      le:1.8190956115722656e+00 }
            -
               depth: 5
               value: 3.
               norm_class_idx: 3
               splits:
                  - { var:40, quality:5.4371070861816406e+01,
                      le:3.0293571949005127e-01 }
            -
               depth: 6
               value: 3.
               norm_class_idx: 3
            -
               depth: 6
               value: 3.
               norm_class_idx: 3
               splits:
                  - { var:50, quality:52., le:-2.6283663511276245e-01 }
            -
               depth: 7
               value: 2.
               norm_class_idx: 2
            -
               depth: 7
               value: 3.
               norm_class_idx: 3
            -
               depth: 5
               value: 3.
               norm_class_idx: 3
               splits:
                  - { var:12, quality:21., le:3.3471674804687500e+03 }
            -
               depth: 6
               value: 2.
               norm_class_idx: 2
            -
               depth: 6
               value: 3.
               norm_class_idx: 3
               splits:
                  - { var:32, quality:2.0021739959716797e+01,
                      le:6.0175478458404541e-01 }
            -
               depth: 7
               value: 2.
               norm_class_idx: 2
            -
               depth: 7
               value: 3.
               norm_class_idx: 3
               splits:
                  - { var:17, quality:1.9272727966308594e+01,
                      le:3.8126153945922852e+00 }
            -
               depth: 8
               value: 0.
               norm_class_idx: 0
            -
               depth: 8
               value: 3.
               norm_class_idx: 3
               splits:
                  - { var:51, quality:19., le:3.4456207275390625e+02 }
            -
               depth: 9
               value: 3.
               norm_class_idx: 3
            -
               depth: 9
               value: 3.
               norm_class_idx: 3
            -
               depth: 4
               value: 2.
               norm_class_idx: 2
            -
               depth: 1
               value: 2.
               norm_class_idx: 2
               splits:
                  - { var:52, quality:4.7421051025390625e+01,
                      le:3.4929248046875000e+02 }
            -
               depth: 2
               value: 2.
               norm_class_idx: 2
               splits:
                  - { var:15, quality:4.0901660919189453e+01,
                      le:3.4765000000000000e+03 }
            -
               depth: 3
               value: 1.
               norm_class_idx: 1
               splits:
                  - { var:10, quality:3.5534301757812500e+01,
                      le:4.1950000000000000e+02 }
            -
               depth: 4
               value: 0.
               norm_class_idx: 0
               splits:
                  - { var:52, quality:1.1166666984558105e+01,
                      le:3.3370819091796875e+02 }
            -
               depth: 5
               value: 0.
               norm_class_idx: 0
               splits:
                  - { var:16, quality:12., le:1.5661633300781250e+02 }
            -
               depth: 6
               value: 1.
               norm_class_idx: 1
            -
               depth: 6
               value: 0.
               norm_class_idx: 0
            -
               depth: 5
               value: 1.
               norm_class_idx: 1
            -
               depth: 4
               value: 1.
               norm_class_idx: 1
               splits:
                  - { var:42, quality:3.0608352661132813e+01,
                      le:-4.4853439331054688e+00 }
            -
               depth: 5
               value: 1.
               norm_class_idx: 1
               splits:
                  - { var:25, quality:2.3434389114379883e+01,
                      le:4.6169614791870117e-01 }
            -
               depth: 6
               value: 0.
               norm_class_idx: 0
               splits:
                  - { var:32, quality:9., le:6.0630154609680176e-01 }
            -
               depth: 7
               value: 0.
               norm_class_idx: 0
            -
               depth: 7
               value: 0.
               norm_class_idx: 0
            -
               depth: 6
               value: 1.
               norm_class_idx: 1
               splits:
                  - { var:11, quality:1.9935483932495117e+01,
                      le:1.5815000000000000e+03 }
            -
               depth: 7
               value: 1.
               norm_class_idx: 1
               splits:
                  - { var:10, quality:1.9595237731933594e+01,
                      le:4.9150000000000000e+02 }
            -
               depth: 8
               value: 2.
               norm_class_idx: 2
            -
               depth: 8
               value: 1.
               norm_class_idx: 1
               splits:
                  - { var:47, quality:1.9923076629638672e+01,
                      le:1.5095231628417969e+02 }
            -
               depth: 9
               value: 1.
               norm_class_idx: 1
               splits:
                  - { var:49, quality:2.0559999465942383e+01,
                      le:2.1962844848632813e+01 }
            -
               depth: 10
               value: 0.
               norm_class_idx: 0
            -
               depth: 10
               value: 1.
               norm_class_idx: 1
            -
               depth: 9
               value: 0.
               norm_class_idx: 0
            -
               depth: 7
               value: 2.
               norm_class_idx: 2
            -
               depth: 5
               value: 2.
               norm_class_idx: 2
               splits:
                  - { var:52, quality:1.5943181991577148e+01,
                      le:2.5383969116210938e+02 }
            -
               depth: 6
               value: 1.
               norm_class_idx: 1
               splits:
                  - { var:56, quality:8., le:1.1004753112792969e+02 }
            -
               depth: 7
               value: 2.
               norm_class_idx: 2
            -
               depth: 7
               value: 1.
               norm_class_idx: 1
            -
               depth: 6
               value: 2.
               norm_class_idx: 2
               splits:
                  - { var:49, quality:13., le:6.8340515136718750e+01 }
            -
               depth: 7
               value: 2.
               norm_class_idx: 2
            -
               depth: 7
               value: 0.
               norm_class_idx: 0
            -
               depth: 3
               value: 2.
               norm_class_idx: 2
               splits:
                  - { var:13, quality:1.5111110687255859e+01,
                      le:5.4338781738281250e+02 }
            -
               depth: 4
               value: 2.
               norm_class_idx: 2
               splits:
                  - { var:54, quality:9.1999998092651367e+00,
                      le:1.2250000000000000e+02 }
            -
               depth: 5
               value: 2.
               norm_class_idx: 2
            -
               depth: 5
               value: 1.
               norm_class_idx: 1
            -
               depth: 4
               value: 2.
               norm_class_idx: 2
            -
               depth: 2
               value: 0.
               norm_class_idx: 0
      -
         nodes:
            -
               depth: 0
               value: 3.
               norm_class_idx: 3
               splits:
                  - { var:15, quality:1.0146726226806641e+02, le:3466. }
            -
               depth: 1
               value: 0.
               norm_class_idx: 0
               splits:
                  - { var:3, quality:3.6897434234619141e+01,
                      le:1.2145000000000000e+03 }
            -
               depth: 2
               value: 1.
               norm_class_idx: 1
               splits:
                  - { var:31, quality:1.9268964767456055e+01,
                      le:3.5986995697021484e-01 }
            -
               depth: 3
               value: 2.
               norm_class_idx: 2
            -
               depth: 3
               value: 1.
               norm_class_idx: 1
               splits:
                  - { var:8, quality:1.8391304016113281e+01,
                      le:7.1923870849609375e+02 }
            -
               depth: 4
               value: 3.
               norm_class_idx: 3
            -
               depth: 4
               value: 1.
               norm_class_idx: 1
               splits:
                  - { var:42, quality:1.7736841201782227e+01,
                      le:-1.4730407714843750e+01 }
            -
               depth: 5
               value: 2.
               norm_class_idx: 2
            -
               depth: 5
               value: 1.
               norm_class_idx: 1
               splits:
                  - { var:4, quality:1.5333333015441895e+01,
                      le:8.1259411621093750e+02 }
            -
               depth: 6
               value: 0.
               norm_class_idx: 0
            -
               depth: 6
               value: 1.
               norm_class_idx: 1
               splits:
                  - { var:29, quality:1.6117647171020508e+01,
                      le:1.2746115028858185e-01 }
            -
               depth: 7
               value: 0.
               norm_class_idx: 0
            -
               depth: 7
               value: 1.
               norm_class_idx: 1
               splits:
                  - { var:2, quality:17., le:1.0895000000000000e+03 }
            -
               depth: 8
               value: 1.
               norm_class_idx: 1
            -
               depth: 8
               value: 2.
               norm_class_idx: 2
            -
               depth: 2
               value: 0.
               norm_class_idx: 0
               splits:
                  - { var:36, quality:2.9053968429565430e+01,
                      le:6.0061061382293701e-01 }
            -
               depth: 3
               value: 2.
               norm_class_idx: 2
            -
               depth: 3
               value: 0.
               norm_class_idx: 0
               splits:
                  - { var:11, quality:2.7325580596923828e+01,
                      le:1.0115000000000000e+03 }
            -
               depth: 4
               value: 2.
               norm_class_idx: 2
            -
               depth: 4
               value: 0.
               norm_class_idx: 0
               splits:
                  - { var:56, quality:2.7799999237060547e+01,
                      le:1.1642073059082031e+02 }
            -
               depth: 5
               value: 0.
               norm_class_idx: 0
               splits:
                  - { var:28, quality:2.4482759475708008e+01,
                      le:-2.6221144199371338e-01 }
            -
               depth: 6
               value: 2.
               norm_class_idx: 2
            -
               depth: 6
               value: 0.
               norm_class_idx: 0
               splits:
                  - { var:22, quality:2.7074073791503906e+01,
                      le:5.5682674050331116e-02 }
            -
               depth: 7
               value: 1.
               norm_class_idx: 1
            -
               depth: 7
               value: 0.
               norm_class_idx: 0
               splits:
                  - { var:54, quality:2.5333333969116211e+01, le:116. }
            -
               depth: 8
               value: 0.
               norm_class_idx: 0
            -
               depth: 8
               value: 0.
               norm_class_idx: 0
            -
               depth: 5
               value: 0.
               norm_class_idx: 0
               splits:
                  - { var:2, quality:8.6190471649169922e+00, le:1067. }
            -
               depth: 6
               value: 0.
               norm_class_idx: 0
            -
               depth: 6
               value: 2.
               norm_class_idx: 2
            -
               depth: 1
               value: 3.
               norm_class_idx: 3
               splits:
                  - { var:16, quality:8.9187500000000000e+01,
                      le:5.4015060424804688e+01 }
            -
               depth: 2
               value: 3.
               norm_class_idx: 3
               splits:
                  - { var:6, quality:7.9981483459472656e+01, le:937. }
            -
               depth: 3
               value: 3.
               norm_class_idx: 3
               splits:
                  - { var:16, quality:8.0927864074707031e+01,
                      le:2.1439577102661133e+01 }
            -
               depth: 4
               value: 2.
               norm_class_idx: 2
            -
               depth: 4
               value: 3.
               norm_class_idx: 3
               splits:
                  - { var:51, quality:7.9600715637207031e+01,
                      le:2.6915908813476563e+02 }
            -
               depth: 5
               value: 3.
               norm_class_idx: 3
               splits:
                  - { var:58, quality:6.2758975982666016e+01,
                      le:4.3500000000000000e+01 }
            -
               depth: 6
               value: 3.
               norm_class_idx: 3
            -
               depth: 6
               value: 3.
               norm_class_idx: 3
               splits:
                  - { var:31, quality:6.3031250000000000e+01,
                      le:1.7952672958374023e+01 }
            -
               depth: 7
               value: 3.
               norm_class_idx: 3
               splits:
                  - { var:26, quality:6.2500000000000000e+01,
                      le:3.1431479454040527e+00 }
            -
               depth: 8
               value: 3.
               norm_class_idx: 3
            -
               depth: 8
               value: 3.
               norm_class_idx: 3
            -
               depth: 7
               value: 2.
               norm_class_idx: 2
            -
               depth: 5
               value: 3.
               norm_class_idx: 3
               splits:
                  - { var:35, quality:2.0323076248168945e+01,
                      le:9.3223142623901367e-01 }
            -
               depth: 6
               value: 3.
               norm_class_idx: 3
               splits:
                  - { var:21, quality:1.8666666030883789e+01,
                      le:4.0153373032808304e-02 }
            -
               depth: 7
               value: 2.
               norm_class_idx: 2
            -
               depth: 7
               value: 3.
               norm_class_idx: 3
            -
               depth: 6
               value: 3.
               norm_class_idx: 3
               splits:
                  - { var:35, quality:8.2500000000000000e+00,
                      le:9.8966944217681885e-01 }
            -
               depth: 7
               value: 2.
               norm_class_idx: 2
            -
               depth: 7
               value: 3.
               norm_class_idx: 3
            -
               depth: 3
               value: 2.
               norm_class_idx: 2
            -
               depth: 2
               value: 2.
               norm_class_idx: 2
               splits:
                  - { var:0, quality:1.9833333969116211e+01,
                      le:1.1711361083984375e+03 }
            -
               depth: 3
               value: 2.
               norm_class_idx: 2
               splits:
                  - { var:49, quality:1.8666666030883789e+01,
                      le:1.0486916351318359e+02 }
            -
               depth: 4
               value: 2.
               norm_class_idx: 2
               splits:
                  - { var:47, quality:17., le:1.3370798110961914e+01 }
            -
               depth: 5
               value: 1.
               norm_class_idx: 1
            -
               depth: 5
               value: 2.
               norm_class_idx: 2
            -
               depth: 4
               value: 3.
               norm_class_idx: 3
            -
               depth: 3
               value: 1.
               norm_class_idx: 1
      -
         nodes:
            -
               depth: 0
               value: 3.
               norm_class_idx: 3
               splits:
                  - { var:50, quality:1.1452190399169922e+02,
                      le:1.4627465248107910e+01 }
            -
               depth: 1
               value: 3.
               norm_class_idx: 3
               splits:
                  - { var:27, quality:8.5391304016113281e+01,
                      le:4.0681467056274414e+00 }
            -
               depth: 2
               value: 3.
               norm_class_idx: 3
               splits:
                  - { var:10, quality:5.3103153228759766e+01,
                      le:5.1350000000000000e+02 }
            -
               depth: 3
               value: 3.
               norm_class_idx: 3
               splits:
                  - { var:9, quality:5.2285713195800781e+01,
                      le:7.4542800903320313e+01 }
            -
               depth: 4
               value: 3.
               norm_class_idx: 3
               splits:
                  - { var:19, quality:4.8592594146728516e+01,
                      le:2.8430006027221680e+01 }
            -
               depth: 5
               value: 2.
               norm_class_idx: 2
            -
               depth: 5
               value: 3.
               norm_class_idx: 3
               splits:
                  - { var:36, quality:4.7313068389892578e+01,
                      le:1.4422389268875122e+00 }
            -
               depth: 6
               value: 3.
               norm_class_idx: 3
               splits:
                  - { var:6, quality:4.3382114410400391e+01,
                      le:6.3150000000000000e+02 }
            -
               depth: 7
               value: 3.
               norm_class_idx: 3
            -
               depth: 7
               value: 3.
               norm_class_idx: 3
               splits:
                  - { var:37, quality:3.9250000000000000e+01,
                      le:2.4931652843952179e-01 }
            -
               depth: 8
               value: 3.
               norm_class_idx: 3
            -
               depth: 8
               value: 3.
               norm_class_idx: 3
            -
               depth: 6
               value: 3.
               norm_class_idx: 3
            -
               depth: 4
               value: 2.
               norm_class_idx: 2
               splits:
                  - { var:40, quality:9.5454549789428711e+00,
                      le:6.0620510578155518e-01 }
            -
               depth: 5
               value: 3.
               norm_class_idx: 3
            -
               depth: 5
               value: 2.
               norm_class_idx: 2
               splits:
                  - { var:17, quality:10., le:1.6697341918945313e+01 }
            -
               depth: 6
               value: 1.
               norm_class_idx: 1
            -
               depth: 6
               value: 2.
               norm_class_idx: 2
            -
               depth: 3
               value: 2.
               norm_class_idx: 2
               splits:
                  - { var:23, quality:1.2142857551574707e+01,
                      le:7.0111334323883057e-01 }
            -
               depth: 4
               value: 2.
               norm_class_idx: 2
            -
               depth: 4
               value: 3.
               norm_class_idx: 3
            -
               depth: 2
               value: 3.
               norm_class_idx: 3
               splits:
                  - { var:32, quality:46., le:5.8751583099365234e-01 }
            -
               depth: 3
               value: 2.
               norm_class_idx: 2
            -
               depth: 3
               value: 3.
               norm_class_idx: 3
            -
               depth: 1
               value: 2.
               norm_class_idx: 2
               splits:
                  - { var:15, quality:3.9835163116455078e+01, le:4008. }
            -
               depth: 2
               value: 0.
               norm_class_idx: 0
               splits:
                  - { var:39, quality:3.5724960327148438e+01,
                      le:1.7396693229675293e+00 }
            -
               depth: 3
               value: 1.
               norm_class_idx: 1
               splits:
                  - { var:7, quality:1.2199999809265137e+01, le:989. }
            -
               depth: 4
               value: 2.
               norm_class_idx: 2
            -
               depth: 4
               value: 1.
               norm_class_idx: 1
               splits:
                  - { var:2, quality:12., le:1.1095000000000000e+03 }
            -
               depth: 5
               value: 1.
               norm_class_idx: 1
            -
               depth: 5
               value: 1.
               norm_class_idx: 1
            -
               depth: 3
               value: 0.
               norm_class_idx: 0
               splits:
                  - { var:22, quality:3.3447666168212891e+01,
                      le:5.5802199989557266e-02 }
            -
               depth: 4
               value: 1.
               norm_class_idx: 1
               splits:
                  - { var:3, quality:1.0181818008422852e+01,
                      le:1.2035000000000000e+03 }
            -
               depth: 5
               value: 0.
               norm_class_idx: 0
            -
               depth: 5
               value: 1.
               norm_class_idx: 1
               splits:
                  - { var:27, quality:11., le:4.5461578369140625e+00 }
            -
               depth: 6
               value: 1.
               norm_class_idx: 1
            -
               depth: 6
               value: 3.
               norm_class_idx: 3
            -
               depth: 4
               value: 0.
               norm_class_idx: 0
               splits:
                  - { var:8, quality:3.4760776519775391e+01,
                      le:9.1756091308593750e+02 }
            -
               depth: 5
               value: 2.
               norm_class_idx: 2
               splits:
                  - { var:36, quality:1.6828571319580078e+01,
                      le:1.4081531763076782e+00 }
            -
               depth: 6
               value: 0.
               norm_class_idx: 0
               splits:
                  - { var:8, quality:7.4545454978942871e+00,
                      le:8.9894543457031250e+02 }
            -
               depth: 7
               value: 0.
               norm_class_idx: 0
               splits:
                  - { var:52, quality:6.4285712242126465e+00,
                      le:3.1013211059570313e+02 }
            -
               depth: 8
               value: 2.
               norm_class_idx: 2
            -
               depth: 8
               value: 0.
               norm_class_idx: 0
            -
               depth: 7
               value: 2.
               norm_class_idx: 2
            -
               depth: 6
               value: 2.
               norm_class_idx: 2
               splits:
                  - { var:51, quality:1.3142857551574707e+01,
                      le:5.4172113037109375e+02 }
            -
               depth: 7
               value: 2.
               norm_class_idx: 2
               splits:
                  - { var:12, quality:13., le:1.3149943847656250e+03 }
            -
               depth: 8
               value: 0.
               norm_class_idx: 0
            -
               depth: 8
               value: 2.
               norm_class_idx: 2
            -
               depth: 7
               value: 1.
               norm_class_idx: 1
            -
               depth: 5
               value: 0.
               norm_class_idx: 0
               splits:
                  - { var:35, quality:2.3428571701049805e+01,
                      le:7.0371901988983154e-01 }
            -
               depth: 6
               value: 1.
               norm_class_idx: 1
            -
               depth: 6
               value: 0.
               norm_class_idx: 0
               splits:
                  - { var:7, quality:2.3307691574096680e+01, le:1285. }
            -
               depth: 7
               value: 0.
               norm_class_idx: 0
               splits:
                  - { var:48, quality:2.2799999237060547e+01,
                      le:1.9778198242187500e+02 }
            -
               depth: 8
               value: 0.
               norm_class_idx: 0
            -
               depth: 8
               value: 0.
               norm_class_idx: 0
            -
               depth: 7
               value: 1.
               norm_class_idx: 1
            -
               depth: 2
               value: 2.
               norm_class_idx: 2
      -
         nodes:
            -
               depth: 0
               value: 3.
               norm_class_idx: 3
               splits:
                  - { var:55, quality:8.2490470886230469e+01,
                      le:4.9550000000000000e+02 }
            -
               depth: 1
               value: 3.
               norm_class_idx: 3
               splits:
                  - { var:33, quality:7.1869277954101563e+01,
                      le:8.3941049873828888e-02 }
            -
               depth: 2
               value: 2.
               norm_class_idx: 2
               splits:
                  - { var:18, quality:3.6732143402099609e+01,
                      le:5.1696475982666016e+01 }
            -
               depth: 3
               value: 3.
               norm_class_idx: 3
               splits:
                  - { var:57, quality:3.2971660614013672e+01,
                      le:2.1019779205322266e+01 }
            -
               depth: 4
               value: 3.
               norm_class_idx: 3
               splits:
                  - { var:34, quality:2.0782608032226563e+01,
                      le:4.3087017536163330e-01 }
            -
               depth: 5
               value: 2.
               norm_class_idx: 2
            -
               depth: 5
               value: 3.
               norm_class_idx: 3
               splits:
                  - { var:16, quality:2.0600000381469727e+01,
                      le:5.4151626586914063e+01 }
            -
               depth: 6
               value: 3.
               norm_class_idx: 3
            -
               depth: 6
               value: 1.
               norm_class_idx: 1
            -
               depth: 4
               value: 2.
               norm_class_idx: 2
               splits:
                  - { var:58, quality:2.0770833969116211e+01,
                      le:7.3500000000000000e+01 }
            -
               depth: 5
               value: 2.
               norm_class_idx: 2
               splits:
                  - { var:5, quality:1.9566667556762695e+01,
                      le:4.1335666656494141e+01 }
            -
               depth: 6
               value: 2.
               norm_class_idx: 2
               splits:
                  - { var:36, quality:1.8111110687255859e+01,
                      le:5.9861159324645996e-01 }
            -
               depth: 7
               value: 3.
               norm_class_idx: 3
            -
               depth: 7
               value: 2.
               norm_class_idx: 2
               splits:
                  - { var:0, quality:18., le:1.0826933593750000e+03 }
            -
               depth: 8
               value: 3.
               norm_class_idx: 3
            -
               depth: 8
               value: 2.
               norm_class_idx: 2
            -
               depth: 6
               value: 3.
               norm_class_idx: 3
               splits:
                  - { var:34, quality:7.8857140541076660e+00,
                      le:5.3429752588272095e-01 }
            -
               depth: 7
               value: 2.
               norm_class_idx: 2
            -
               depth: 7
               value: 3.
               norm_class_idx: 3
            -
               depth: 5
               value: 3.
               norm_class_idx: 3
            -
               depth: 3
               value: 2.
               norm_class_idx: 2
               splits:
                  - { var:44, quality:1.4571428298950195e+01,
                      le:1.0680072784423828e+01 }
            -
               depth: 4
               value: 2.
               norm_class_idx: 2
               splits:
                  - { var:31, quality:1.0727272987365723e+01,
                      le:1.1804163455963135e+00 }
            -
               depth: 5
               value: 2.
               norm_class_idx: 2
               splits:
                  - { var:14, quality:11., le:9.0850000000000000e+02 }
            -
               depth: 6
               value: 1.
               norm_class_idx: 1
            -
               depth: 6
               value: 2.
               norm_class_idx: 2
            -
               depth: 5
               value: 1.
               norm_class_idx: 1
            -
               depth: 4
               value: 0.
               norm_class_idx: 0
               splits:
                  - { var:12, quality:1.2399999618530273e+01,
                      le:1.4300461425781250e+03 }
            -
               depth: 5
               value: 1.
               norm_class_idx: 1
            -
               depth: 5
               value: 0.
               norm_class_idx: 0
            -
               depth: 2
               value: 3.
               norm_class_idx: 3
               splits:
                  - { var:15, quality:5.5384616851806641e+01, le:3445. }
            -
               depth: 3
               value: 0.
               norm_class_idx: 0
               splits:
                  - { var:17, quality:8.5555553436279297e+00,
                      le:8.3373880386352539e+00 }
            -
               depth: 4
               value: 2.
               norm_class_idx: 2
            -
               depth: 4
               value: 0.
               norm_class_idx: 0
            -
               depth: 3
               value: 3.
               norm_class_idx: 3
               splits:
                  - { var:17, quality:5.4433334350585938e+01,
                      le:2.9656528472900391e+01 }
            -
               depth: 4
               value: 3.
               norm_class_idx: 3
               splits:
                  - { var:10, quality:5.2912281036376953e+01,
                      le:5.5950000000000000e+02 }
            -
               depth: 5
               value: 3.
               norm_class_idx: 3
               splits:
                  - { var:1, quality:5.3142856597900391e+01,
                      le:1.3330530166625977e+01 }
            -
               depth: 6
               value: 0.
               norm_class_idx: 0
            -
               depth: 6
               value: 3.
               norm_class_idx: 3
               splits:
                  - { var:44, quality:5.2439216613769531e+01,
                      le:1.8976349830627441e+00 }
            -
               depth: 7
               value: 3.
               norm_class_idx: 3
            -
               depth: 7
               value: 3.
               norm_class_idx: 3
               splits:
                  - { var:37, quality:4.9400001525878906e+01,
                      le:1.3330063819885254e+00 }
            -
               depth: 8
               value: 3.
               norm_class_idx: 3
            -
               depth: 8
               value: 3.
               norm_class_idx: 3
            -
               depth: 5
               value: 3.
               norm_class_idx: 3
            -
               depth: 4
               value: 2.
               norm_class_idx: 2
            -
               depth: 1
               value: 0.
               norm_class_idx: 0
               splits:
                  - { var:54, quality:2.8462963104248047e+01, le:124. }
            -
               depth: 2
               value: 3.
               norm_class_idx: 3
               splits:
                  - { var:16, quality:1.0181818008422852e+01,
                      le:2.4651962280273438e+01 }
            -
               depth: 3
               value: 1.
               norm_class_idx: 1
            -
               depth: 3
               value: 3.
               norm_class_idx: 3
               splits:
                  - { var:22, quality:11., le:1.0841131210327148e-01 }
            -
               depth: 4
               value: 3.
               norm_class_idx: 3
            -
               depth: 4
               value: 0.
               norm_class_idx: 0
            -
               depth: 2
               value: 0.
               norm_class_idx: 0
               splits:
                  - { var:14, quality:2.7095237731933594e+01,
                      le:1.3255000000000000e+03 }
            -
               depth: 3
               value: 0.
               norm_class_idx: 0
               splits:
                  - { var:33, quality:2.4309091567993164e+01,
                      le:8.8607594370841980e-02 }
            -
               depth: 4
               value: 2.
               norm_class_idx: 2
               splits:
                  - { var:50, quality:1.2833333015441895e+01,
                      le:1.0724989318847656e+02 }
            -
               depth: 5
               value: 1.
               norm_class_idx: 1
            -
               depth: 5
               value: 2.
               norm_class_idx: 2
               splits:
                  - { var:35, quality:13., le:7.6942145824432373e-01 }
            -
               depth: 6
               value: 0.
               norm_class_idx: 0
            -
               depth: 6
               value: 2.
               norm_class_idx: 2
            -
               depth: 4
               value: 0.
               norm_class_idx: 0
               splits:
                  - { var:24, quality:1.8105262756347656e+01,
                      le:3.1043829917907715e+00 }
            -
               depth: 5
               value: 0.
               norm_class_idx: 0
               splits:
                  - { var:49, quality:19., le:1.0352682495117188e+02 }
            -
               depth: 6
               value: 0.
               norm_class_idx: 0
            -
               depth: 6
               value: 1.
               norm_class_idx: 1
            -
               depth: 5
               value: 1.
               norm_class_idx: 1
            -
               depth: 3
               value: 2.
               norm_class_idx: 2
               splits:
                  - { var:41, quality:1.0666666984558105e+01,
                      le:1.9217977523803711e+00 }
            -
               depth: 4
               value: 3.
               norm_class_idx: 3
            -
               depth: 4
               value: 2.
               norm_class_idx: 2
      -
         nodes:
            -
               depth: 0
               value: 3.
               norm_class_idx: 3
               splits:
                  - { var:18, quality:1.0296907806396484e+02,
                      le:5.2771984100341797e+01 }
            -
               depth: 1
               value: 3.
               norm_class_idx: 3
               splits:
                  - { var:19, quality:7.8722412109375000e+01,
                      le:1.3325445556640625e+02 }
            -
               depth: 2
               value: 3.
               norm_class_idx: 3
               splits:
                  - { var:7, quality:7.2840576171875000e+01, le:1029. }
            -
               depth: 3
               value: 3.
               norm_class_idx: 3
               splits:
                  - { var:44, quality:5.7626697540283203e+01,
                      le:1.8625869750976563e+01 }
            -
               depth: 4
               value: 3.
               norm_class_idx: 3
               splits:
                  - { var:9, quality:52., le:8.7976852416992188e+01 }
            -
               depth: 5
               value: 3.
               norm_class_idx: 3
            -
               depth: 5
               value: 2.
               norm_class_idx: 2
            -
               depth: 4
               value: 3.
               norm_class_idx: 3
               splits:
                  - { var:58, quality:9.5000000000000000e+00,
                      le:7.3500000000000000e+01 }
            -
               depth: 5
               value: 2.
               norm_class_idx: 2
               splits:
                  - { var:55, quality:7.7500000000000000e+00, le:462. }
            -
               depth: 6
               value: 3.
               norm_class_idx: 3
            -
               depth: 6
               value: 2.
               norm_class_idx: 2
            -
               depth: 5
               value: 3.
               norm_class_idx: 3
            -
               depth: 3
               value: 2.
               norm_class_idx: 2
               splits:
                  - { var:1, quality:2.1854118347167969e+01,
                      le:2.4397481918334961e+01 }
            -
               depth: 4
               value: 2.
               norm_class_idx: 2
               splits:
                  - { var:56, quality:16., le:1.0763415527343750e+02 }
            -
               depth: 5
               value: 2.
               norm_class_idx: 2
               splits:
                  - { var:22, quality:1.4800000190734863e+01,
                      le:1.3494637608528137e-01 }
            -
               depth: 6
               value: 2.
               norm_class_idx: 2
               splits:
                  - { var:5, quality:14., le:2.8922691345214844e+01 }
            -
               depth: 7
               value: 2.
               norm_class_idx: 2
            -
               depth: 7
               value: 2.
               norm_class_idx: 2
            -
               depth: 6
               value: 3.
               norm_class_idx: 3
            -
               depth: 5
               value: 3.
               norm_class_idx: 3
            -
               depth: 4
               value: 3.
               norm_class_idx: 3
               splits:
                  - { var:41, quality:1.1133333206176758e+01,
                      le:3.7359430789947510e+00 }
            -
               depth: 5
               value: 3.
               norm_class_idx: 3
               splits:
                  - { var:26, quality:1.1615385055541992e+01,
                      le:2.4657611846923828e+00 }
            -
               depth: 6
               value: 3.
               norm_class_idx: 3
               splits:
                  - { var:0, quality:13., le:1.1340581054687500e+03 }
            -
               depth: 7
               value: 3.
               norm_class_idx: 3
            -
               depth: 7
               value: 2.
               norm_class_idx: 2
            -
               depth: 6
               value: 2.
               norm_class_idx: 2
            -
               depth: 5
               value: 1.
               norm_class_idx: 1
            -
               depth: 2
               value: 2.
               norm_class_idx: 2
               splits:
                  - { var:27, quality:2.2074073791503906e+01,
                      le:4.3374156951904297e+00 }
            -
               depth: 3
               value: 2.
               norm_class_idx: 2
               splits:
                  - { var:42, quality:22., le:-1.6842942237854004e+00 }
            -
               depth: 4
               value: 2.
               norm_class_idx: 2
            -
               depth: 4
               value: 1.
               norm_class_idx: 1
            -
               depth: 3
               value: 3.
               norm_class_idx: 3
            -
               depth: 1
               value: 0.
               norm_class_idx: 0
               splits:
                  - { var:8, quality:4.0902935028076172e+01,
                      le:9.1809387207031250e+02 }
            -
               depth: 2
               value: 2.
               norm_class_idx: 2
               splits:
                  - { var:34, quality:1.7108108520507813e+01,
                      le:4.2914438247680664e-01 }
            -
               depth: 3
               value: 0.
               norm_class_idx: 0
            -
               depth: 3
               value: 2.
               norm_class_idx: 2
               splits:
                  - { var:39, quality:1.6562500000000000e+01,
                      le:3.9628100395202637e+00 }
            -
               depth: 4
               value: 2.
               norm_class_idx: 2
               splits:
                  - { var:48, quality:1.4948718070983887e+01,
                      le:1.1564926910400391e+02 }
            -
               depth: 5
               value: 1.
               norm_class_idx: 1
            -
               depth: 5
               value: 2.
               norm_class_idx: 2
               splits:
                  - { var:31, quality:1.5523809432983398e+01,
                      le:1.8572545051574707e+00 }
            -
               depth: 6
               value: 2.
               norm_class_idx: 2
               splits:
                  - { var:4, quality:1.3210526466369629e+01,
                      le:8.5288488769531250e+02 }
            -
               depth: 7
               value: 0.
               norm_class_idx: 0
            -
               depth: 7
               value: 2.
               norm_class_idx: 2
               splits:
                  - { var:40, quality:1.3823529243469238e+01,
                      le:-2.9609246253967285e+00 }
            -
               depth: 8
               value: 1.
               norm_class_idx: 1
            -
               depth: 8
               value: 2.
               norm_class_idx: 2
               splits:
                  - { var:11, quality:1.3500000000000000e+01,
                      le:1.1245000000000000e+03 }
            -
               depth: 9
               value: 2.
               norm_class_idx: 2
               splits:
                  - { var:31, quality:1.4133333206176758e+01,
                      le:1.2558016777038574e+00 }
            -
               depth: 10
               value: 2.
               norm_class_idx: 2
            -
               depth: 10
               value: 1.
               norm_class_idx: 1
            -
               depth: 9
               value: 0.
               norm_class_idx: 0
            -
               depth: 6
               value: 0.
               norm_class_idx: 0
            -
               depth: 4
               value: 1.
               norm_class_idx: 1
            -
               depth: 2
               value: 0.
               norm_class_idx: 0
               splits:
                  - { var:39, quality:3.4116279602050781e+01,
                      le:1.6404957771301270e+00 }
            -
               depth: 3
               value: 1.
               norm_class_idx: 1
            -
               depth: 3
               value: 0.
               norm_class_idx: 0
               splits:
                  - { var:36, quality:3.0902439117431641e+01,
                      le:3.1917014122009277e+00 }
            -
               depth: 4
               value: 0.
               norm_class_idx: 0
               splits:
                  - { var:43, quality:3.0399999618530273e+01,
                      le:2.5416398048400879e-01 }
            -
               depth: 5
               value: 1.
               norm_class_idx: 1
            -
               depth: 5
               value: 0.
               norm_class_idx: 0
               splits:
                  - { var:16, quality:3.1500000000000000e+01,
                      le:1.6475836181640625e+02 }
            -
               depth: 6
               value: 0.
               norm_class_idx: 0
               splits:
                  - { var:55, quality:1.3333333015441895e+01,
                      le:5.0950000000000000e+02 }
            -
               depth: 7
               value: 0.
               norm_class_idx: 0
            -
               depth: 7
               value: 1.
               norm_class_idx: 1
            -
               depth: 6
               value: 0.
               norm_class_idx: 0
            -
               depth: 4
               value: 1.
               norm_class_idx: 1
      -
         nodes:
            -
               depth: 0
               value: 3.
               norm_class_idx: 3
               splits:
                  - { var:19, quality:9.8312782287597656e+01,
                      le:1.2600473785400391e+02 }
            -
               depth: 1
               value: 3.
               norm_class_idx: 3
               splits:
                  - { var:3, quality:6.8864410400390625e+01,
                      le:1.1425000000000000e+03 }
            -
               depth: 2
               value: 3.
               norm_class_idx: 3
            -
               depth: 2
               value: 3.
               norm_class_idx: 3
               splits:
                  - { var:6, quality:3.1940380096435547e+01, le:718. }
            -
               depth: 3
               value: 3.
               norm_class_idx: 3
               splits:
                  - { var:41, quality:17., le:5.7704496383666992e-01 }
            -
               depth: 4
               value: 2.
               norm_class_idx: 2
            -
               depth: 4
               value: 3.
               norm_class_idx: 3
            -
               depth: 3
               value: 3.
               norm_class_idx: 3
               splits:
                  - { var:54, quality:2.2055555343627930e+01,
                      le:9.8500000000000000e+01 }
            -
               depth: 4
               value: 1.
               norm_class_idx: 1
            -
               depth: 4
               value: 3.
               norm_class_idx: 3
               splits:
                  - { var:56, quality:2.0642141342163086e+01,
                      le:1.0441606140136719e+02 }
            -
               depth: 5
               value: 3.
               norm_class_idx: 3
               splits:
                  - { var:59, quality:1.1181818008422852e+01,
                      le:1.4650000000000000e+02 }
            -
               depth: 6
               value: 2.
               norm_class_idx: 2
            -
               depth: 6
               value: 3.
               norm_class_idx: 3
               splits:
                  - { var:46, quality:9.5000000000000000e+00,
                      le:3.2446840405464172e-01 }
            -
               depth: 7
               value: 3.
               norm_class_idx: 3
            -
               depth: 7
               value: 3.
               norm_class_idx: 3
            -
               depth: 5
               value: 2.
               norm_class_idx: 2
               splits:
                  - { var:29, quality:1.5177778244018555e+01,
                      le:8.4221214056015015e-01 }
            -
               depth: 6
               value: 2.
               norm_class_idx: 2
               splits:
                  - { var:49, quality:14., le:4.0001071929931641e+01 }
            -
               depth: 7
               value: 2.
               norm_class_idx: 2
            -
               depth: 7
               value: 2.
               norm_class_idx: 2
            -
               depth: 6
               value: 3.
               norm_class_idx: 3
            -
               depth: 1
               value: 0.
               norm_class_idx: 0
               splits:
                  - { var:12, quality:4.9771553039550781e+01,
                      le:2.7968383789062500e+03 }
            -
               depth: 2
               value: 0.
               norm_class_idx: 0
               splits:
                  - { var:16, quality:4.6176998138427734e+01,
                      le:1.5295616149902344e+02 }
            -
               depth: 3
               value: 2.
               norm_class_idx: 2
               splits:
                  - { var:44, quality:2.3333333969116211e+01,
                      le:2.1126229763031006e+00 }
            -
               depth: 4
               value: 1.
               norm_class_idx: 1
            -
               depth: 4
               value: 2.
               norm_class_idx: 2
               splits:
                  - { var:45, quality:2.1500000000000000e+01,
                      le:1.0341594696044922e+01 }
            -
               depth: 5
               value: 2.
               norm_class_idx: 2
               splits:
                  - { var:58, quality:20., le:5.9500000000000000e+01 }
            -
               depth: 6
               value: 0.
               norm_class_idx: 0
            -
               depth: 6
               value: 2.
               norm_class_idx: 2
               splits:
                  - { var:2, quality:20., le:9.7450000000000000e+02 }
            -
               depth: 7
               value: 1.
               norm_class_idx: 1
            -
               depth: 7
               value: 2.
               norm_class_idx: 2
            -
               depth: 5
               value: 0.
               norm_class_idx: 0
               splits:
                  - { var:0, quality:7.5999999046325684e+00,
                      le:1.1782801513671875e+03 }
            -
               depth: 6
               value: 1.
               norm_class_idx: 1
            -
               depth: 6
               value: 0.
               norm_class_idx: 0
            -
               depth: 3
               value: 0.
               norm_class_idx: 0
               splits:
                  - { var:59, quality:3.3959251403808594e+01,
                      le:1.8050000000000000e+02 }
            -
               depth: 4
               value: 1.
               norm_class_idx: 1
               splits:
                  - { var:56, quality:1.7081817626953125e+01,
                      le:1.0453730010986328e+02 }
            -
               depth: 5
               value: 1.
               norm_class_idx: 1
               splits:
                  - { var:29, quality:11., le:1.9656330347061157e-01 }
            -
               depth: 6
               value: 2.
               norm_class_idx: 2
            -
               depth: 6
               value: 1.
               norm_class_idx: 1
            -
               depth: 5
               value: 0.
               norm_class_idx: 0
               splits:
                  - { var:8, quality:1.3393939018249512e+01,
                      le:9.3467187500000000e+02 }
            -
               depth: 6
               value: 0.
               norm_class_idx: 0
               splits:
                  - { var:25, quality:9.1999998092651367e+00,
                      le:4.4072067737579346e-01 }
            -
               depth: 7
               value: 2.
               norm_class_idx: 2
            -
               depth: 7
               value: 0.
               norm_class_idx: 0
            -
               depth: 6
               value: 1.
               norm_class_idx: 1
            -
               depth: 4
               value: 0.
               norm_class_idx: 0
               splits:
                  - { var:22, quality:2.5299999237060547e+01,
                      le:6.6508442163467407e-02 }
            -
               depth: 5
               value: 0.
               norm_class_idx: 0
               splits:
                  - { var:13, quality:1.0989010810852051e+01,
                      le:2.5637768554687500e+02 }
            -
               depth: 6
               value: 2.
               norm_class_idx: 2
            -
               depth: 6
               value: 0.
               norm_class_idx: 0
               splits:
                  - { var:40, quality:11., le:-1.6558680534362793e+00 }
            -
               depth: 7
               value: 0.
               norm_class_idx: 0
            -
               depth: 7
               value: 1.
               norm_class_idx: 1
            -
               depth: 5
               value: 0.
               norm_class_idx: 0
            -
               depth: 2
               value: 3.
               norm_class_idx: 3
               splits:
                  - { var:10, quality:1.3199999809265137e+01, le:394. }
            -
               depth: 3
               value: 3.
               norm_class_idx: 3
            -
               depth: 3
               value: 3.
               norm_class_idx: 3
      -
         nodes:
            -
               depth: 0
               value: 3.
               norm_class_idx: 3
               splits:
                  - { var:42, quality:9.5407341003417969e+01,
                      le:-1.7853627204895020e+00 }
            -
               depth: 1
               value: 2.
               norm_class_idx: 2
               splits:
                  - { var:12, quality:4.8954517364501953e+01,
                      le:2.5556010742187500e+03 }
            -
               depth: 2
               value: 0.
               norm_class_idx: 0
               splits:
                  - { var:52, quality:3.3369861602783203e+01,
                      le:3.5211407470703125e+02 }
            -
               depth: 3
               value: 0.
               norm_class_idx: 0
               splits:
                  - { var:36, quality:3.0444444656372070e+01,
                      le:2.0061879158020020e+00 }
            -
               depth: 4
               value: 0.
               norm_class_idx: 0
               splits:
                  - { var:47, quality:2.3936363220214844e+01,
                      le:2.9941509246826172e+01 }
            -
               depth: 5
               value: 2.
               norm_class_idx: 2
            -
               depth: 5
               value: 0.
               norm_class_idx: 0
               splits:
                  - { var:4, quality:2.1955554962158203e+01,
                      le:1.1036042480468750e+03 }
            -
               depth: 6
               value: 0.
               norm_class_idx: 0
               splits:
                  - { var:8, quality:2.1833333969116211e+01,
                      le:9.1756091308593750e+02 }
            -
               depth: 7
               value: 2.
               norm_class_idx: 2
               splits:
                  - { var:16, quality:9.8214282989501953e+00,
                      le:1.5808761596679688e+02 }
            -
               depth: 8
               value: 0.
               norm_class_idx: 0
            -
               depth: 8
               value: 2.
               norm_class_idx: 2
            -
               depth: 7
               value: 0.
               norm_class_idx: 0
               splits:
                  - { var:48, quality:1.8105262756347656e+01,
                      le:1.6740936279296875e+02 }
            -
               depth: 8
               value: 2.
               norm_class_idx: 2
            -
               depth: 8
               value: 0.
               norm_class_idx: 0
               splits:
                  - { var:56, quality:19., le:9.9549697875976563e+01 }
            -
               depth: 9
               value: 1.
               norm_class_idx: 1
            -
               depth: 9
               value: 0.
               norm_class_idx: 0
            -
               depth: 6
               value: 1.
               norm_class_idx: 1
            -
               depth: 4
               value: 1.
               norm_class_idx: 1
               splits:
                  - { var:47, quality:1.3823529243469238e+01,
                      le:1.2467179870605469e+02 }
            -
               depth: 5
               value: 1.
               norm_class_idx: 1
               splits:
                  - { var:7, quality:1.3500000000000000e+01,
                      le:9.1850000000000000e+02 }
            -
               depth: 6
               value: 2.
               norm_class_idx: 2
            -
               depth: 6
               value: 1.
               norm_class_idx: 1
               splits:
                  - { var:23, quality:1.4133333206176758e+01,
                      le:8.2530224323272705e-01 }
            -
               depth: 7
               value: 1.
               norm_class_idx: 1
               splits:
                  - { var:12, quality:15., le:1.3070821533203125e+03 }
            -
               depth: 8
               value: 0.
               norm_class_idx: 0
            -
               depth: 8
               value: 1.
               norm_class_idx: 1
            -
               depth: 7
               value: 0.
               norm_class_idx: 0
            -
               depth: 5
               value: 2.
               norm_class_idx: 2
            -
               depth: 3
               value: 0.
               norm_class_idx: 0
            -
               depth: 2
               value: 3.
               norm_class_idx: 3
               splits:
                  - { var:24, quality:2.6090909957885742e+01,
                      le:2.2244715690612793e+00 }
            -
               depth: 3
               value: 3.
               norm_class_idx: 3
            -
               depth: 3
               value: 2.
               norm_class_idx: 2
               splits:
                  - { var:15, quality:1.8366666793823242e+01, le:4216. }
            -
               depth: 4
               value: 3.
               norm_class_idx: 3
            -
               depth: 4
               value: 2.
               norm_class_idx: 2
               splits:
                  - { var:50, quality:12., le:-2.3185202479362488e-01 }
            -
               depth: 5
               value: 3.
               norm_class_idx: 3
            -
               depth: 5
               value: 2.
               norm_class_idx: 2
            -
               depth: 1
               value: 3.
               norm_class_idx: 3
               splits:
                  - { var:12, quality:6.9834922790527344e+01,
                      le:2.5786250000000000e+03 }
            -
               depth: 2
               value: 1.
               norm_class_idx: 1
            -
               depth: 2
               value: 3.
               norm_class_idx: 3
               splits:
                  - { var:9, quality:6.8959877014160156e+01,
                      le:6.9722793579101563e+01 }
            -
               depth: 3
               value: 3.
               norm_class_idx: 3
               splits:
                  - { var:5, quality:6.1279998779296875e+01,
                      le:4.1389968872070313e+01 }
            -
               depth: 4
               value: 3.
               norm_class_idx: 3
               splits:
                  - { var:25, quality:3.3872341156005859e+01,
                      le:2.9412090778350830e-01 }
            -
               depth: 5
               value: 2.
               norm_class_idx: 2
            -
               depth: 5
               value: 3.
               norm_class_idx: 3
               splits:
                  - { var:39, quality:3.4876190185546875e+01,
                      le:1.2272727489471436e+00 }
            -
               depth: 6
               value: 2.
               norm_class_idx: 2
            -
               depth: 6
               value: 3.
               norm_class_idx: 3
               splits:
                  - { var:16, quality:3.4650001525878906e+01,
                      le:5.4714981079101563e+01 }
            -
               depth: 7
               value: 3.
               norm_class_idx: 3
               splits:
                  - { var:41, quality:3.5555557250976563e+01,
                      le:2.6667318344116211e+00 }
            -
               depth: 8
               value: 3.
               norm_class_idx: 3
               splits:
                  - { var:1, quality:36., le:2.1867187500000000e+01 }
            -
               depth: 9
               value: 3.
               norm_class_idx: 3
            -
               depth: 9
               value: 2.
               norm_class_idx: 2
            -
               depth: 8
               value: 2.
               norm_class_idx: 2
            -
               depth: 7
               value: 2.
               norm_class_idx: 2
            -
               depth: 4
               value: 3.
               norm_class_idx: 3
            -
               depth: 3
               value: 3.
               norm_class_idx: 3
               splits:
                  - { var:32, quality:1.6111110687255859e+01,
                      le:7.4294316768646240e-01 }
            -
               depth: 4
               value: 3.
               norm_class_idx: 3
               splits:
                  - { var:0, quality:1.4533333778381348e+01,
                      le:1.1377272949218750e+03 }
            -
               depth: 5
               value: 3.
               norm_class_idx: 3
               splits:
                  - { var:6, quality:1.3142857551574707e+01, le:595. }
            -
               depth: 6
               value: 2.
               norm_class_idx: 2
            -
               depth: 6
               value: 3.
               norm_class_idx: 3
               splits:
                  - { var:10, quality:1.2666666984558105e+01,
                      le:4.9950000000000000e+02 }
            -
               depth: 7
               value: 3.
               norm_class_idx: 3
            -
               depth: 7
               value: 3.
               norm_class_idx: 3
            -
               depth: 5
               value: 1.
               norm_class_idx: 1
            -
               depth: 4
               value: 2.
               norm_class_idx: 2
      -
         nodes:
            -
               depth: 0
               value: 3.
               norm_class_idx: 3
               splits:
                  - { var:48, quality:9.6360977172851563e+01,
                      le:3.1451854705810547e+01 }
            -
               depth: 1
               value: 3.
               norm_class_idx: 3
               splits:
                  - { var:31, quality:5.1148147583007813e+01,
                      le:2.1363730728626251e-01 }
            -
               depth: 2
               value: 2.
               norm_class_idx: 2
            -
               depth: 2
               value: 3.
               norm_class_idx: 3
               splits:
                  - { var:0, quality:5.2037734985351563e+01,
                      le:1.1340581054687500e+03 }
            -
               depth: 3
               value: 3.
               norm_class_idx: 3
               splits:
                  - { var:10, quality:52., le:5.6050000000000000e+02 }
            -
               depth: 4
               value: 3.
               norm_class_idx: 3
            -
               depth: 4
               value: 2.
               norm_class_idx: 2
            -
               depth: 3
               value: 2.
               norm_class_idx: 2
            -
               depth: 1
               value: 2.
               norm_class_idx: 2
               splits:
                  - { var:8, quality:6.5512046813964844e+01,
                      le:7.5506530761718750e+02 }
            -
               depth: 2
               value: 3.
               norm_class_idx: 3
               splits:
                  - { var:3, quality:3.7299999237060547e+01, le:1150. }
            -
               depth: 3
               value: 3.
               norm_class_idx: 3
               splits:
                  - { var:4, quality:19., le:8.4184246826171875e+02 }
            -
               depth: 4
               value: 1.
               norm_class_idx: 1
            -
               depth: 4
               value: 3.
               norm_class_idx: 3
            -
               depth: 3
               value: 2.
               norm_class_idx: 2
               splits:
                  - { var:46, quality:2.4350000381469727e+01,
                      le:1.1212425306439400e-02 }
            -
               depth: 4
               value: 3.
               norm_class_idx: 3
            -
               depth: 4
               value: 2.
               norm_class_idx: 2
               splits:
                  - { var:42, quality:2.5022556304931641e+01,
                      le:-4.0768790245056152e-01 }
            -
               depth: 5
               value: 2.
               norm_class_idx: 2
               splits:
                  - { var:13, quality:1.9100000381469727e+01,
                      le:8.5918328857421875e+02 }
            -
               depth: 6
               value: 2.
               norm_class_idx: 2
               splits:
                  - { var:53, quality:20., le:7.3617065429687500e+01 }
            -
               depth: 7
               value: 2.
               norm_class_idx: 2
            -
               depth: 7
               value: 3.
               norm_class_idx: 3
            -
               depth: 6
               value: 1.
               norm_class_idx: 1
            -
               depth: 5
               value: 2.
               norm_class_idx: 2
               splits:
                  - { var:25, quality:1.3822221755981445e+01,
                      le:4.2752355337142944e-01 }
            -
               depth: 6
               value: 2.
               norm_class_idx: 2
            -
               depth: 6
               value: 3.
               norm_class_idx: 3
            -
               depth: 2
               value: 0.
               norm_class_idx: 0
               splits:
                  - { var:27, quality:4.3914287567138672e+01,
                      le:3.1424875259399414e+00 }
            -
               depth: 3
               value: 1.
               norm_class_idx: 1
            -
               depth: 3
               value: 0.
               norm_class_idx: 0
               splits:
                  - { var:36, quality:4.3754371643066406e+01,
                      le:1.0880135297775269e+00 }
            -
               depth: 4
               value: 2.
               norm_class_idx: 2
               splits:
                  - { var:56, quality:2.0523809432983398e+01,
                      le:1.1160116577148438e+02 }
            -
               depth: 5
               value: 2.
               norm_class_idx: 2
               splits:
                  - { var:9, quality:1.4153845787048340e+01,
                      le:5.0926132202148438e+01 }
            -
               depth: 6
               value: 1.
               norm_class_idx: 1
            -
               depth: 6
               value: 2.
               norm_class_idx: 2
               splits:
                  - { var:54, quality:13., le:1.7050000000000000e+02 }
            -
               depth: 7
               value: 2.
               norm_class_idx: 2
            -
               depth: 7
               value: 1.
               norm_class_idx: 1
            -
               depth: 5
               value: 0.
               norm_class_idx: 0
               splits:
                  - { var:33, quality:1.5133333206176758e+01,
                      le:7.8994892537593842e-02 }
            -
               depth: 6
               value: 2.
               norm_class_idx: 2
            -
               depth: 6
               value: 0.
               norm_class_idx: 0
               splits:
                  - { var:13, quality:1.3166666984558105e+01,
                      le:1.5595863342285156e+02 }
            -
               depth: 7
               value: 2.
               norm_class_idx: 2
            -
               depth: 7
               value: 0.
               norm_class_idx: 0
               splits:
                  - { var:30, quality:12., le:-3.5245904922485352e+00 }
            -
               depth: 8
               value: 2.
               norm_class_idx: 2
            -
               depth: 8
               value: 0.
               norm_class_idx: 0
            -
               depth: 4
               value: 0.
               norm_class_idx: 0
               splits:
                  - { var:18, quality:3.4419353485107422e+01,
                      le:4.6398983001708984e+01 }
            -
               depth: 5
               value: 2.
               norm_class_idx: 2
            -
               depth: 5
               value: 0.
               norm_class_idx: 0
               splits:
                  - { var:37, quality:3.4686668395996094e+01,
                      le:1.0335545539855957e+00 }
            -
               depth: 6
               value: 0.
               norm_class_idx: 0
               splits:
                  - { var:37, quality:2.8473684310913086e+01,
                      le:8.7075901031494141e-01 }
            -
               depth: 7
               value: 0.
               norm_class_idx: 0
               splits:
                  - { var:30, quality:2.2011905670166016e+01,
                      le:-1.5510834753513336e-01 }
            -
               depth: 8
               value: 1.
               norm_class_idx: 1
               splits:
                  - { var:54, quality:1.4951048851013184e+01,
                      le:1.5850000000000000e+02 }
            -
               depth: 9
               value: 1.
               norm_class_idx: 1
               splits:
                  - { var:7, quality:11., le:9.1850000000000000e+02 }
            -
               depth: 10
               value: 2.
               norm_class_idx: 2
            -
               depth: 10
               value: 1.
               norm_class_idx: 1
            -
               depth: 9
               value: 0.
               norm_class_idx: 0
               splits:
                  - { var:58, quality:8.3999996185302734e+00, le:62. }
            -
               depth: 10
               value: 1.
               norm_class_idx: 1
            -
               depth: 10
               value: 0.
               norm_class_idx: 0
            -
               depth: 8
               value: 0.
               norm_class_idx: 0
               splits:
                  - { var:25, quality:1.2153845787048340e+01,
                      le:1.0079129040241241e-01 }
            -
               depth: 9
               value: 2.
               norm_class_idx: 2
            -
               depth: 9
               value: 0.
               norm_class_idx: 0
               splits:
                  - { var:20, quality:13., le:9.3303732573986053e-02 }
            -
               depth: 10
               value: 1.
               norm_class_idx: 1
            -
               depth: 10
               value: 0.
               norm_class_idx: 0
            -
               depth: 7
               value: 0.
               norm_class_idx: 0
            -
               depth: 6
               value: 1.
               norm_class_idx: 1
               splits:
                  - { var:47, quality:12., le:1.6812075805664063e+02 }
            -
               depth: 7
               value: 1.
               norm_class_idx: 1
            -
               depth: 7
               value: 0.
               norm_class_idx: 0
      -
         nodes:
            -
               depth: 0
               value: 3.
               norm_class_idx: 3
               splits:
                  - { var:8, quality:1.1247599792480469e+02,
                      le:7.1241522216796875e+02 }
            -
               depth: 1
               value: 3.
               norm_class_idx: 3
               splits:
                  - { var:35, quality:8.4427688598632813e+01,
                      le:6.7107439041137695e-01 }
            -
               depth: 2
               value: 2.
               norm_class_idx: 2
            -
               depth: 2
               value: 3.
               norm_class_idx: 3
               splits:
                  - { var:7, quality:8.4959747314453125e+01,
                      le:1.0405000000000000e+03 }
            -
               depth: 3
               value: 3.
               norm_class_idx: 3
               splits:
                  - { var:17, quality:6.6257141113281250e+01,
                      le:2.8932146072387695e+01 }
            -
               depth: 4
               value: 3.
               norm_class_idx: 3
               splits:
                  - { var:33, quality:6.6115943908691406e+01,
                      le:2.3878607898950577e-02 }
            -
               depth: 5
               value: 2.
               norm_class_idx: 2
            -
               depth: 5
               value: 3.
               norm_class_idx: 3
               splits:
                  - { var:42, quality:6.7029411315917969e+01,
                      le:-5.1045322418212891e+00 }
            -
