%YAML:1.0
---
opencv_ml_rtrees:
   format: 3
   is_classifier: 1
   var_all: 61
   var_count: 60
   ord_var_count: 60
   cat_var_count: 1
   training_params:
      use_surrogates: 0
      max_categories: 10
      regression_accuracy: 0.
      max_depth: 10
      min_sample_count: 10
      cross_validation_folds: 0
      nactive_vars: 0
   global_var_idx: 1
   var_idx: [ 0, 1, 2, 3, 4, 5, 6, 7, 8, 9, 10, 11, 12, 13, 14, 15, 16,
       17, 18, 19, 20, 21, 22, 23, 24, 25, 26, 27, 28, 29, 30, 31, 32,
       33, 34, 35, 36, 37, 38, 39, 40, 41, 42, 43, 44, 45, 46, 47, 48,
       49, 50, 51, 52, 53, 54, 55, 56, 57, 58, 59 ]
   var_type: [ 0, 0, 0, 0, 0, 0, 0, 0, 0, 0, 0, 0, 0, 0, 0, 0, 0, 0, 0,
       0, 0, 0, 0, 0, 0, 0, 0, 0, 0, 0, 0, 0, 0, 0, 0, 0, 0, 0, 0, 0, 0,
       0, 0, 0, 0, 0, 0, 0, 0, 0, 0, 0, 0, 0, 0, 0, 0, 0, 0, 0, 1 ]
   cat_ofs: [ 0, 0, 0, 0, 0, 0, 0, 0, 0, 0, 0, 0, 0, 0, 0, 0, 0, 0, 0, 0,
       0, 0, 0, 0, 0, 0, 0, 0, 0, 0, 0, 0, 0, 0, 0, 0, 0, 0, 0, 0, 0, 0,
       0, 0, 0, 0, 0, 0, 0, 0, 0, 0, 0, 0, 0, 0, 0, 0, 0, 0, 0, 0, 0, 0,
       0, 0, 0, 0, 0, 0, 0, 0, 0, 0, 0, 0, 0, 0, 0, 0, 0, 0, 0, 0, 0, 0,
       0, 0, 0, 0, 0, 0, 0, 0, 0, 0, 0, 0, 0, 0, 0, 0, 0, 0, 0, 0, 0, 0,
       0, 0, 0, 0, 0, 0, 0, 0, 0, 0, 0, 0 ]
   class_labels: [ 1, 2, 3, 4, 5, 6, 7 ]
   missing_subst: [ 0., 0., 0., 0., 0., 0., 0., 0., 0., 0., 0., 0., 0.,
       0., 0., 0., 0., 0., 0., 0., 0., 0., 0., 0., 0., 0., 0., 0., 0.,
       0., 0., 0., 0., 0., 0., 0., 0., 0., 0., 0., 0., 0., 0., 0., 0.,
       0., 0., 0., 0., 0., 0., 0., 0., 0., 0., 0., 0., 0., 0., 0., 0. ]
   oob_error: 5.8333333333333337e-01
   ntrees: 200
   trees:
      -
         nodes:
            -
               depth: 0
               value: 1.
               norm_class_idx: 0
               splits:
                  - { var:8, quality:6.2591705322265625e+01,
                      le:7.1847070312500000e+02 }
            -
               depth: 1
               value: 1.
               norm_class_idx: 0
               splits:
                  - { var:28, quality:3.9823528289794922e+01,
                      le:9.8452687263488770e-01 }
            -
               depth: 2
               value: 1.
               norm_class_idx: 0
               splits:
                  - { var:54, quality:3.9269229888916016e+01,
                      le:1.0550000000000000e+02 }
            -
               depth: 3
               value: 1.
               norm_class_idx: 0
               splits:
                  - { var:44, quality:2.1555555343627930e+01,
                      le:9.6505737304687500e+00 }
            -
               depth: 4
               value: 1.
               norm_class_idx: 0
            -
               depth: 4
               value: 1.
               norm_class_idx: 0
            -
               depth: 3
               value: 1.
               norm_class_idx: 0
               splits:
                  - { var:6, quality:2.5897018432617188e+01, le:902. }
            -
               depth: 4
               value: 1.
               norm_class_idx: 0
               splits:
                  - { var:41, quality:2.5050746917724609e+01,
                      le:6.1256676912307739e-01 }
            -
               depth: 5
               value: 6.
               norm_class_idx: 5
               splits:
                  - { var:42, quality:8.8461542129516602e+00,
                      le:-5.9093646705150604e-02 }
            -
               depth: 6
               value: 6.
               norm_class_idx: 5
               splits:
                  - { var:35, quality:9.2500000000000000e+00,
                      le:8.3347105979919434e-01 }
            -
               depth: 7
               value: 6.
               norm_class_idx: 5
            -
               depth: 7
               value: 3.
               norm_class_idx: 2
            -
               depth: 6
               value: 1.
               norm_class_idx: 0
            -
               depth: 5
               value: 1.
               norm_class_idx: 0
               splits:
                  - { var:45, quality:2.3387500762939453e+01,
                      le:1.1620933532714844e+01 }
            -
               depth: 6
               value: 1.
               norm_class_idx: 0
               splits:
                  - { var:40, quality:1.7666666030883789e+01,
                      le:8.3736024796962738e-02 }
            -
               depth: 7
               value: 6.
               norm_class_idx: 5
            -
               depth: 7
               value: 1.
               norm_class_idx: 0
               splits:
                  - { var:3, quality:1.8719999313354492e+01, le:1214. }
            -
               depth: 8
               value: 1.
               norm_class_idx: 0
               splits:
                  - { var:21, quality:1.8608695983886719e+01,
                      le:2.0601555705070496e-02 }
            -
               depth: 9
               value: 3.
               norm_class_idx: 2
            -
               depth: 9
               value: 1.
               norm_class_idx: 0
               splits:
                  - { var:50, quality:1.9799999237060547e+01,
                      le:3.4471106529235840e-01 }
            -
               depth: 10
               value: 1.
               norm_class_idx: 0
            -
               depth: 10
               value: 1.
               norm_class_idx: 0
            -
               depth: 8
               value: 6.
               norm_class_idx: 5
            -
               depth: 6
               value: 4.
               norm_class_idx: 3
               splits:
                  - { var:12, quality:1.0633333206176758e+01,
                      le:3.5284448242187500e+03 }
            -
               depth: 7
               value: 1.
               norm_class_idx: 0
               splits:
                  - { var:50, quality:1.0285714149475098e+01,
                      le:1.0286601066589355e+01 }
            -
               depth: 8
               value: 1.
               norm_class_idx: 0
            -
               depth: 8
               value: 4.
               norm_class_idx: 3
            -
               depth: 7
               value: 3.
               norm_class_idx: 2
               splits:
                  - { var:26, quality:9.4166669845581055e+00,
                      le:1.2266883850097656e+00 }
            -
               depth: 8
               value: 4.
               norm_class_idx: 3
               splits:
                  - { var:50, quality:5.5555553436279297e+00,
                      le:-1.7680999636650085e-01 }
            -
               depth: 9
               value: 2.
               norm_class_idx: 1
            -
               depth: 9
               value: 4.
               norm_class_idx: 3
            -
               depth: 8
               value: 3.
               norm_class_idx: 2
            -
               depth: 4
               value: 5.
               norm_class_idx: 4
            -
               depth: 2
               value: 3.
               norm_class_idx: 2
            -
               depth: 1
               value: 6.
               norm_class_idx: 5
               splits:
                  - { var:43, quality:3.4178089141845703e+01,
                      le:6.4360747337341309e+00 }
            -
               depth: 2
               value: 6.
               norm_class_idx: 5
               splits:
                  - { var:8, quality:2.3490591049194336e+01,
                      le:8.8030773925781250e+02 }
            -
               depth: 3
               value: 1.
               norm_class_idx: 0
               splits:
                  - { var:13, quality:1.5079999923706055e+01,
                      le:3.8857666015625000e+02 }
            -
               depth: 4
               value: 1.
               norm_class_idx: 0
               splits:
                  - { var:30, quality:1.1695652008056641e+01,
                      le:-1.2099337577819824e-01 }
            -
               depth: 5
               value: 1.
               norm_class_idx: 0
               splits:
                  - { var:48, quality:1.2181818008422852e+01,
                      le:1.3816143798828125e+02 }
            -
               depth: 6
               value: 1.
               norm_class_idx: 0
               splits:
                  - { var:47, quality:11., le:7.9222297668457031e+00 }
            -
               depth: 7
               value: 6.
               norm_class_idx: 5
            -
               depth: 7
               value: 1.
               norm_class_idx: 0
            -
               depth: 6
               value: 1.
               norm_class_idx: 0
               splits:
                  - { var:28, quality:6.5000000000000000e+00,
                      le:2.9299649596214294e-01 }
            -
               depth: 7
               value: 5.
               norm_class_idx: 4
            -
               depth: 7
               value: 1.
               norm_class_idx: 0
            -
               depth: 5
               value: 4.
               norm_class_idx: 3
            -
               depth: 4
               value: 6.
               norm_class_idx: 5
            -
               depth: 3
               value: 7.
               norm_class_idx: 6
               splits:
                  - { var:58, quality:1.8899999618530273e+01,
                      le:8.1500000000000000e+01 }
            -
               depth: 4
               value: 7.
               norm_class_idx: 6
               splits:
                  - { var:31, quality:1.8809524536132813e+01,
                      le:2.0630702972412109e+00 }
            -
               depth: 5
               value: 7.
               norm_class_idx: 6
               splits:
                  - { var:18, quality:1.4380952835083008e+01,
                      le:1.1904177093505859e+02 }
            -
               depth: 6
               value: 7.
               norm_class_idx: 6
               splits:
                  - { var:57, quality:1.7333333969116211e+01,
                      le:2.6263999938964844e+01 }
            -
               depth: 7
               value: 7.
               norm_class_idx: 6
            -
               depth: 7
               value: 6.
               norm_class_idx: 5
            -
               depth: 6
               value: 1.
               norm_class_idx: 0
            -
               depth: 5
               value: 5.
               norm_class_idx: 4
               splits:
                  - { var:2, quality:8.8888893127441406e+00,
                      le:1.0025000000000000e+03 }
            -
               depth: 6
               value: 7.
               norm_class_idx: 6
            -
               depth: 6
               value: 5.
               norm_class_idx: 4
            -
               depth: 4
               value: 6.
               norm_class_idx: 5
            -
               depth: 2
               value: 6.
               norm_class_idx: 5
               splits:
                  - { var:57, quality:1.9255556106567383e+01,
                      le:2.5798576354980469e+01 }
            -
               depth: 3
               value: 6.
               norm_class_idx: 5
               splits:
                  - { var:16, quality:1.6421052932739258e+01,
                      le:1.7399090576171875e+02 }
            -
               depth: 4
               value: 6.
               norm_class_idx: 5
               splits:
                  - { var:21, quality:1.6600000381469727e+01,
                      le:1.5217053890228271e-01 }
            -
               depth: 5
               value: 6.
               norm_class_idx: 5
            -
               depth: 5
               value: 6.
               norm_class_idx: 5
            -
               depth: 4
               value: 7.
               norm_class_idx: 6
            -
               depth: 3
               value: 5.
               norm_class_idx: 4
      -
         nodes:
            -
               depth: 0
               value: 1.
               norm_class_idx: 0
               splits:
                  - { var:16, quality:6.8123291015625000e+01,
                      le:1.2088481140136719e+02 }
            -
               depth: 1
               value: 1.
               norm_class_idx: 0
               splits:
                  - { var:20, quality:4.6620876312255859e+01,
                      le:1.1632189899682999e-01 }
            -
               depth: 2
               value: 3.
               norm_class_idx: 2
               splits:
                  - { var:33, quality:8.5000000000000000e+00,
                      le:5.1786229014396667e-02 }
            -
               depth: 3
               value: 3.
               norm_class_idx: 2
            -
               depth: 3
               value: 6.
               norm_class_idx: 5
            -
               depth: 2
               value: 1.
               norm_class_idx: 0
               splits:
                  - { var:14, quality:4.4482608795166016e+01, le:2651. }
            -
               depth: 3
               value: 1.
               norm_class_idx: 0
               splits:
                  - { var:52, quality:4.3733516693115234e+01,
                      le:2.6937179565429688e+02 }
            -
               depth: 4
               value: 1.
               norm_class_idx: 0
               splits:
                  - { var:41, quality:4.0296760559082031e+01,
                      le:1.7032990455627441e+00 }
            -
               depth: 5
               value: 1.
               norm_class_idx: 0
               splits:
                  - { var:19, quality:3.3425926208496094e+01,
                      le:5.3849861145019531e+01 }
            -
               depth: 6
               value: 4.
               norm_class_idx: 3
            -
               depth: 6
               value: 1.
               norm_class_idx: 0
               splits:
                  - { var:40, quality:3.6599998474121094e+01,
                      le:-1.9503040239214897e-02 }
            -
               depth: 7
               value: 6.
               norm_class_idx: 5
            -
               depth: 7
               value: 1.
               norm_class_idx: 0
               splits:
                  - { var:7, quality:3.5875000000000000e+01, le:912. }
            -
               depth: 8
               value: 2.
               norm_class_idx: 1
            -
               depth: 8
               value: 1.
               norm_class_idx: 0
               splits:
                  - { var:20, quality:3.5965156555175781e+01,
                      le:5.1587605476379395e-01 }
            -
               depth: 9
               value: 1.
               norm_class_idx: 0
               splits:
                  - { var:2, quality:3.5349998474121094e+01,
                      le:1.1085000000000000e+03 }
            -
               depth: 10
               value: 1.
               norm_class_idx: 0
            -
               depth: 10
               value: 4.
               norm_class_idx: 3
            -
               depth: 9
               value: 1.
               norm_class_idx: 0
            -
               depth: 5
               value: 1.
               norm_class_idx: 0
               splits:
                  - { var:24, quality:1.4925926208496094e+01,
                      le:1.8691581487655640e+00 }
            -
               depth: 6
               value: 3.
               norm_class_idx: 2
            -
               depth: 6
               value: 1.
               norm_class_idx: 0
               splits:
                  - { var:29, quality:1.2647727012634277e+01,
                      le:4.1898217797279358e-01 }
            -
               depth: 7
               value: 1.
               norm_class_idx: 0
               splits:
                  - { var:58, quality:1.1166666984558105e+01, le:50. }
            -
               depth: 8
               value: 3.
               norm_class_idx: 2
            -
               depth: 8
               value: 1.
               norm_class_idx: 0
               splits:
                  - { var:10, quality:1.0199999809265137e+01, le:601. }
            -
               depth: 9
               value: 1.
               norm_class_idx: 0
            -
               depth: 9
               value: 6.
               norm_class_idx: 5
            -
               depth: 7
               value: 6.
               norm_class_idx: 5
               splits:
                  - { var:9, quality:9.2222223281860352e+00,
                      le:7.2051658630371094e+01 }
            -
               depth: 8
               value: 1.
               norm_class_idx: 0
            -
               depth: 8
               value: 6.
               norm_class_idx: 5
            -
               depth: 4
               value: 6.
               norm_class_idx: 5
               splits:
                  - { var:59, quality:1.3125000000000000e+01,
                      le:1.8850000000000000e+02 }
            -
               depth: 5
               value: 6.
               norm_class_idx: 5
               splits:
                  - { var:16, quality:1.1428571701049805e+01,
                      le:6.4692916870117188e+01 }
            -
               depth: 6
               value: 6.
               norm_class_idx: 5
               splits:
                  - { var:50, quality:13., le:-2.3870578408241272e-01 }
            -
               depth: 7
               value: 1.
               norm_class_idx: 0
            -
               depth: 7
               value: 6.
               norm_class_idx: 5
            -
               depth: 6
               value: 3.
               norm_class_idx: 2
            -
               depth: 5
               value: 1.
               norm_class_idx: 0
            -
               depth: 3
               value: 5.
               norm_class_idx: 4
               splits:
                  - { var:5, quality:8.6464643478393555e+00,
                      le:1.8033163070678711e+01 }
            -
               depth: 4
               value: 5.
               norm_class_idx: 4
            -
               depth: 4
               value: 1.
               norm_class_idx: 0
               splits:
                  - { var:1, quality:7., le:1.5932060241699219e+01 }
            -
               depth: 5
               value: 1.
               norm_class_idx: 0
            -
               depth: 5
               value: 3.
               norm_class_idx: 2
            -
               depth: 1
               value: 7.
               norm_class_idx: 6
               splits:
                  - { var:41, quality:3.4174999237060547e+01,
                      le:4.5218229293823242e-01 }
            -
               depth: 2
               value: 5.
               norm_class_idx: 4
            -
               depth: 2
               value: 7.
               norm_class_idx: 6
               splits:
                  - { var:1, quality:3.2471672058105469e+01,
                      le:2.0847867965698242e+01 }
            -
               depth: 3
               value: 6.
               norm_class_idx: 5
               splits:
                  - { var:14, quality:10., le:1111. }
            -
               depth: 4
               value: 6.
               norm_class_idx: 5
            -
               depth: 4
               value: 6.
               norm_class_idx: 5
            -
               depth: 3
               value: 7.
               norm_class_idx: 6
               splits:
                  - { var:37, quality:2.8640350341796875e+01,
                      le:1.0335545539855957e+00 }
            -
               depth: 4
               value: 7.
               norm_class_idx: 6
               splits:
                  - { var:58, quality:3.0719999313354492e+01,
                      le:8.1500000000000000e+01 }
            -
               depth: 5
               value: 7.
               norm_class_idx: 6
               splits:
                  - { var:20, quality:2.5555555343627930e+01,
                      le:5.3897428512573242e-01 }
            -
               depth: 6
               value: 7.
               norm_class_idx: 6
               splits:
                  - { var:51, quality:2.6753623962402344e+01,
                      le:4.6585687255859375e+02 }
            -
               depth: 7
               value: 7.
               norm_class_idx: 6
               splits:
                  - { var:23, quality:2.1666666030883789e+01,
                      le:9.5944607257843018e-01 }
            -
               depth: 8
               value: 7.
               norm_class_idx: 6
            -
               depth: 8
               value: 7.
               norm_class_idx: 6
            -
               depth: 7
               value: 7.
               norm_class_idx: 6
               splits:
                  - { var:31, quality:9.1999998092651367e+00,
                      le:1.5087888240814209e+00 }
            -
               depth: 8
               value: 7.
               norm_class_idx: 6
               splits:
                  - { var:0, quality:9.3999996185302734e+00,
                      le:1.1408034667968750e+03 }
            -
               depth: 9
               value: 6.
               norm_class_idx: 5
            -
               depth: 9
               value: 7.
               norm_class_idx: 6
            -
               depth: 8
               value: 5.
               norm_class_idx: 4
            -
               depth: 6
               value: 1.
               norm_class_idx: 0
            -
               depth: 5
               value: 6.
               norm_class_idx: 5
            -
               depth: 4
               value: 6.
               norm_class_idx: 5
               splits:
                  - { var:46, quality:8., le:2.5834026336669922e+00 }
            -
               depth: 5
               value: 5.
               norm_class_idx: 4
            -
               depth: 5
               value: 6.
               norm_class_idx: 5
      -
         nodes:
            -
               depth: 0
               value: 1.
               norm_class_idx: 0
               splits:
                  - { var:44, quality:5.6108623504638672e+01,
                      le:1.0505784988403320e+01 }
            -
               depth: 1
               value: 1.
               norm_class_idx: 0
               splits:
                  - { var:11, quality:4.7190921783447266e+01,
                      le:8.0150000000000000e+02 }
            -
               depth: 2
               value: 1.
               norm_class_idx: 0
               splits:
                  - { var:24, quality:3.0630252838134766e+01,
                      le:1.6524428129196167e+00 }
            -
               depth: 3
               value: 3.
               norm_class_idx: 2
               splits:
                  - { var:34, quality:9.8222217559814453e+00,
                      le:5.6967765092849731e-01 }
            -
               depth: 4
               value: 3.
               norm_class_idx: 2
            -
               depth: 4
               value: 1.
               norm_class_idx: 0
            -
               depth: 3
               value: 1.
               norm_class_idx: 0
               splits:
                  - { var:46, quality:3.0566667556762695e+01,
                      le:1.0843753814697266e+00 }
            -
               depth: 4
               value: 1.
               norm_class_idx: 0
               splits:
                  - { var:15, quality:2.8333333969116211e+01, le:4584. }
            -
               depth: 5
               value: 1.
               norm_class_idx: 0
            -
               depth: 5
               value: 1.
               norm_class_idx: 0
            -
               depth: 4
               value: 3.
               norm_class_idx: 2
            -
               depth: 2
               value: 6.
               norm_class_idx: 5
               splits:
                  - { var:45, quality:2.7844720840454102e+01,
                      le:2.9615068435668945e+00 }
            -
               depth: 3
               value: 6.
               norm_class_idx: 5
               splits:
                  - { var:28, quality:16., le:4.6859532594680786e-01 }
            -
               depth: 4
               value: 6.
               norm_class_idx: 5
               splits:
                  - { var:3, quality:1.6117647171020508e+01,
                      le:1.2635000000000000e+03 }
            -
               depth: 5
               value: 6.
               norm_class_idx: 5
               splits:
                  - { var:10, quality:17., le:367. }
            -
               depth: 6
               value: 3.
               norm_class_idx: 2
            -
               depth: 6
               value: 6.
               norm_class_idx: 5
            -
               depth: 5
               value: 5.
               norm_class_idx: 4
            -
               depth: 4
               value: 3.
               norm_class_idx: 2
            -
               depth: 3
               value: 1.
               norm_class_idx: 0
               splits:
                  - { var:16, quality:2.0756755828857422e+01,
                      le:5.2378051757812500e+01 }
            -
               depth: 4
               value: 1.
               norm_class_idx: 0
            -
               depth: 4
               value: 6.
               norm_class_idx: 5
               splits:
                  - { var:13, quality:1.4881720542907715e+01,
                      le:5.7599932861328125e+02 }
            -
               depth: 5
               value: 6.
               norm_class_idx: 5
               splits:
                  - { var:27, quality:13., le:3.3399140834808350e+00 }
            -
               depth: 6
               value: 5.
               norm_class_idx: 4
            -
               depth: 6
               value: 6.
               norm_class_idx: 5
               splits:
                  - { var:22, quality:1.3960783958435059e+01,
                      le:7.6343834400177002e-02 }
            -
               depth: 7
               value: 7.
               norm_class_idx: 6
               splits:
                  - { var:16, quality:5.7714285850524902e+00,
                      le:1.5279742431640625e+02 }
            -
               depth: 8
               value: 7.
               norm_class_idx: 6
            -
               depth: 8
               value: 6.
               norm_class_idx: 5
            -
               depth: 7
               value: 6.
               norm_class_idx: 5
               splits:
                  - { var:3, quality:1.1966666221618652e+01, le:1298. }
            -
               depth: 8
               value: 6.
               norm_class_idx: 5
               splits:
                  - { var:19, quality:12., le:1.0871257019042969e+02 }
            -
               depth: 9
               value: 2.
               norm_class_idx: 1
            -
               depth: 9
               value: 6.
               norm_class_idx: 5
            -
               depth: 8
               value: 1.
               norm_class_idx: 0
            -
               depth: 5
               value: 1.
               norm_class_idx: 0
            -
               depth: 1
               value: 7.
               norm_class_idx: 6
               splits:
                  - { var:16, quality:2.9722749710083008e+01,
                      le:1.0431407165527344e+02 }
            -
               depth: 2
               value: 1.
               norm_class_idx: 0
               splits:
                  - { var:34, quality:1.5452830314636230e+01,
                      le:3.7732133269309998e-01 }
            -
               depth: 3
               value: 3.
               norm_class_idx: 2
            -
               depth: 3
               value: 1.
               norm_class_idx: 0
               splits:
                  - { var:2, quality:1.7013954162597656e+01, le:977. }
            -
               depth: 4
               value: 1.
               norm_class_idx: 0
            -
               depth: 4
               value: 4.
               norm_class_idx: 3
               splits:
                  - { var:59, quality:1.1903030395507813e+01, le:151. }
            -
               depth: 5
               value: 4.
               norm_class_idx: 3
            -
               depth: 5
               value: 6.
               norm_class_idx: 5
               splits:
                  - { var:24, quality:9.8518514633178711e+00,
                      le:2.3680300712585449e+00 }
            -
               depth: 6
               value: 1.
               norm_class_idx: 0
            -
               depth: 6
               value: 6.
               norm_class_idx: 5
               splits:
                  - { var:3, quality:9.7105264663696289e+00,
                      le:1.1365000000000000e+03 }
            -
               depth: 7
               value: 3.
               norm_class_idx: 2
            -
               depth: 7
               value: 6.
               norm_class_idx: 5
               splits:
                  - { var:34, quality:1.0071428298950195e+01,
                      le:4.3116188049316406e-01 }
            -
               depth: 8
               value: 1.
               norm_class_idx: 0
            -
               depth: 8
               value: 6.
               norm_class_idx: 5
               splits:
                  - { var:4, quality:1.0181818008422852e+01,
                      le:1.0184639892578125e+03 }
            -
               depth: 9
               value: 6.
               norm_class_idx: 5
               splits:
                  - { var:58, quality:11., le:74. }
            -
               depth: 10
               value: 6.
               norm_class_idx: 5
            -
               depth: 10
               value: 4.
               norm_class_idx: 3
            -
               depth: 9
               value: 3.
               norm_class_idx: 2
            -
               depth: 2
               value: 7.
               norm_class_idx: 6
               splits:
                  - { var:20, quality:2.4381818771362305e+01,
                      le:9.4552770256996155e-02 }
            -
               depth: 3
               value: 6.
               norm_class_idx: 5
            -
               depth: 3
               value: 7.
               norm_class_idx: 6
               splits:
                  - { var:0, quality:2.2319999694824219e+01,
                      le:1.3076680908203125e+03 }
            -
               depth: 4
               value: 7.
               norm_class_idx: 6
               splits:
                  - { var:25, quality:2.3666666030883789e+01,
                      le:7.0188140869140625e-01 }
            -
               depth: 5
               value: 7.
               norm_class_idx: 6
               splits:
                  - { var:0, quality:1.8296297073364258e+01,
                      le:1.0944406738281250e+03 }
            -
               depth: 6
               value: 3.
               norm_class_idx: 2
            -
               depth: 6
               value: 7.
               norm_class_idx: 6
               splits:
                  - { var:12, quality:1.8360000610351563e+01,
                      le:1.8032849121093750e+03 }
            -
               depth: 7
               value: 7.
               norm_class_idx: 6
               splits:
                  - { var:45, quality:1.9939393997192383e+01,
                      le:2.7288825988769531e+01 }
            -
               depth: 8
               value: 7.
               norm_class_idx: 6
               splits:
                  - { var:25, quality:2.0095237731933594e+01,
                      le:2.0930159091949463e-01 }
            -
               depth: 9
               value: 4.
               norm_class_idx: 3
            -
               depth: 9
               value: 7.
               norm_class_idx: 6
               splits:
                  - { var:49, quality:21., le:8.9614089965820313e+01 }
            -
               depth: 10
               value: 7.
               norm_class_idx: 6
            -
               depth: 10
               value: 6.
               norm_class_idx: 5
            -
               depth: 8
               value: 1.
               norm_class_idx: 0
            -
               depth: 7
               value: 3.
               norm_class_idx: 2
            -
               depth: 5
               value: 5.
               norm_class_idx: 4
               splits:
                  - { var:5, quality:1.2800000190734863e+01,
                      le:3.3821029663085938e+01 }
            -
               depth: 6
               value: 7.
               norm_class_idx: 6
            -
               depth: 6
               value: 5.
               norm_class_idx: 4
            -
               depth: 4
               value: 5.
               norm_class_idx: 4
      -
         nodes:
            -
               depth: 0
               value: 1.
               norm_class_idx: 0
               splits:
                  - { var:11, quality:5.8868602752685547e+01, le:1008. }
            -
               depth: 1
               value: 1.
               norm_class_idx: 0
               splits:
                  - { var:54, quality:4.4699203491210938e+01, le:125. }
            -
               depth: 2
               value: 1.
               norm_class_idx: 0
               splits:
                  - { var:43, quality:3.4898471832275391e+01,
                      le:7.4630756378173828e+00 }
            -
               depth: 3
               value: 1.
               norm_class_idx: 0
               splits:
                  - { var:9, quality:3.3536796569824219e+01,
                      le:7.1427291870117188e+01 }
            -
               depth: 4
               value: 1.
               norm_class_idx: 0
               splits:
                  - { var:13, quality:3.3426471710205078e+01,
                      le:2.0929412841796875e+02 }
            -
               depth: 5
               value: 3.
               norm_class_idx: 2
            -
               depth: 5
               value: 1.
               norm_class_idx: 0
               splits:
                  - { var:56, quality:3.2060607910156250e+01,
                      le:8.2563377380371094e+01 }
            -
               depth: 6
               value: 3.
               norm_class_idx: 2
            -
               depth: 6
               value: 1.
               norm_class_idx: 0
               splits:
                  - { var:13, quality:33., le:6.9608374023437500e+02 }
            -
               depth: 7
               value: 1.
               norm_class_idx: 0
            -
               depth: 7
               value: 2.
               norm_class_idx: 1
            -
               depth: 4
               value: 2.
               norm_class_idx: 1
               splits:
                  - { var:48, quality:7.5714287757873535e+00,
                      le:3.3175121307373047e+01 }
            -
               depth: 5
               value: 2.
               norm_class_idx: 1
            -
               depth: 5
               value: 6.
               norm_class_idx: 5
            -
               depth: 3
               value: 3.
               norm_class_idx: 2
               splits:
                  - { var:0, quality:8.6730766296386719e+00,
                      le:1.0616762695312500e+03 }
            -
               depth: 4
               value: 3.
               norm_class_idx: 2
            -
               depth: 4
               value: 6.
               norm_class_idx: 5
               splits:
                  - { var:3, quality:7.1999998092651367e+00, le:1171. }
            -
               depth: 5
               value: 3.
               norm_class_idx: 2
            -
               depth: 5
               value: 6.
               norm_class_idx: 5
            -
               depth: 2
               value: 6.
               norm_class_idx: 5
               splits:
                  - { var:48, quality:2.1673881530761719e+01,
                      le:2.9353897094726563e+01 }
            -
               depth: 3
               value: 1.
               norm_class_idx: 0
               splits:
                  - { var:20, quality:1.0533333778381348e+01,
                      le:3.1882584095001221e-01 }
            -
               depth: 4
               value: 1.
               norm_class_idx: 0
            -
               depth: 4
               value: 1.
               norm_class_idx: 0
               splits:
                  - { var:24, quality:6.4000000953674316e+00,
                      le:2.0865206718444824e+00 }
            -
               depth: 5
               value: 5.
               norm_class_idx: 4
            -
               depth: 5
               value: 2.
               norm_class_idx: 1
            -
               depth: 3
               value: 6.
               norm_class_idx: 5
               splits:
                  - { var:53, quality:1.8139394760131836e+01,
                      le:5.3314300537109375e+01 }
            -
               depth: 4
               value: 4.
               norm_class_idx: 3
               splits:
                  - { var:42, quality:9.6397514343261719e+00,
                      le:-2.5101623535156250e+00 }
            -
               depth: 5
               value: 5.
               norm_class_idx: 4
            -
               depth: 5
               value: 4.
               norm_class_idx: 3
               splits:
                  - { var:36, quality:1.0157895088195801e+01,
                      le:8.8412916660308838e-01 }
            -
               depth: 6
               value: 6.
               norm_class_idx: 5
            -
               depth: 6
               value: 4.
               norm_class_idx: 3
               splits:
                  - { var:2, quality:1.1422222137451172e+01,
                      le:1.0245000000000000e+03 }
            -
               depth: 7
               value: 1.
               norm_class_idx: 0
            -
               depth: 7
               value: 4.
               norm_class_idx: 3
            -
               depth: 4
               value: 6.
               norm_class_idx: 5
               splits:
                  - { var:17, quality:1.5551724433898926e+01,
                      le:3.0601486206054688e+01 }
            -
               depth: 5
               value: 6.
               norm_class_idx: 5
               splits:
                  - { var:11, quality:1.5020000457763672e+01,
                      le:9.9550000000000000e+02 }
            -
               depth: 6
               value: 6.
               norm_class_idx: 5
               splits:
                  - { var:37, quality:1.5434782981872559e+01,
                      le:1.1425592899322510e+00 }
            -
               depth: 7
               value: 6.
               norm_class_idx: 5
               splits:
                  - { var:50, quality:1.6600000381469727e+01,
                      le:2.2278303146362305e+01 }
            -
               depth: 8
               value: 6.
               norm_class_idx: 5
            -
               depth: 8
               value: 3.
               norm_class_idx: 2
            -
               depth: 7
               value: 1.
               norm_class_idx: 0
            -
               depth: 6
               value: 1.
               norm_class_idx: 0
            -
               depth: 5
               value: 3.
               norm_class_idx: 2
            -
               depth: 1
               value: 7.
               norm_class_idx: 6
               splits:
                  - { var:18, quality:2.6719047546386719e+01,
                      le:5.5953414916992188e+01 }
            -
               depth: 2
               value: 1.
               norm_class_idx: 0
               splits:
                  - { var:53, quality:9.0833330154418945e+00,
                      le:7.1799407958984375e+01 }
            -
               depth: 3
               value: 1.
               norm_class_idx: 0
            -
               depth: 3
               value: 3.
               norm_class_idx: 2
            -
               depth: 2
               value: 7.
               norm_class_idx: 6
               splits:
                  - { var:28, quality:2.7285715103149414e+01,
                      le:3.8278117775917053e-02 }
            -
               depth: 3
               value: 6.
               norm_class_idx: 5
               splits:
                  - { var:38, quality:1.2953845977783203e+01,
                      le:1.4049586653709412e-01 }
            -
               depth: 4
               value: 1.
               norm_class_idx: 0
            -
               depth: 4
               value: 6.
               norm_class_idx: 5
               splits:
                  - { var:29, quality:13., le:4.2866408824920654e-01 }
            -
               depth: 5
               value: 6.
               norm_class_idx: 5
            -
               depth: 5
               value: 7.
               norm_class_idx: 6
            -
               depth: 3
               value: 7.
               norm_class_idx: 6
               splits:
                  - { var:36, quality:2.7043989181518555e+01,
                      le:7.4677246809005737e-01 }
            -
               depth: 4
               value: 6.
               norm_class_idx: 5
               splits:
                  - { var:53, quality:8., le:6.0143951416015625e+01 }
            -
               depth: 5
               value: 6.
               norm_class_idx: 5
            -
               depth: 5
               value: 1.
               norm_class_idx: 0
            -
               depth: 4
               value: 7.
               norm_class_idx: 6
               splits:
                  - { var:27, quality:2.5620689392089844e+01,
                      le:4.3986816406250000e+00 }
            -
               depth: 5
               value: 7.
               norm_class_idx: 6
               splits:
                  - { var:18, quality:2.5285715103149414e+01,
                      le:6.0322902679443359e+01 }
            -
               depth: 6
               value: 6.
               norm_class_idx: 5
            -
               depth: 6
               value: 7.
               norm_class_idx: 6
               splits:
                  - { var:37, quality:2.6074073791503906e+01,
                      le:1.7214822769165039e-01 }
            -
               depth: 7
               value: 6.
               norm_class_idx: 5
            -
               depth: 7
               value: 7.
               norm_class_idx: 6
               splits:
                  - { var:21, quality:2.5500000000000000e+01,
                      le:3.0884690582752228e-02 }
            -
               depth: 8
               value: 7.
               norm_class_idx: 6
            -
               depth: 8
               value: 7.
               norm_class_idx: 6
            -
               depth: 5
               value: 5.
               norm_class_idx: 4
      -
         nodes:
            -
               depth: 0
               value: 1.
               norm_class_idx: 0
               splits:
                  - { var:0, quality:6.6640357971191406e+01,
                      le:1.1042584228515625e+03 }
            -
               depth: 1
               value: 1.
               norm_class_idx: 0
               splits:
                  - { var:27, quality:4.5680271148681641e+01,
                      le:4.4182343482971191e+00 }
            -
               depth: 2
               value: 1.
               norm_class_idx: 0
               splits:
                  - { var:44, quality:4.7209461212158203e+01,
                      le:1.6960414886474609e+01 }
            -
               depth: 3
               value: 1.
               norm_class_idx: 0
               splits:
                  - { var:36, quality:4.8085712432861328e+01,
                      le:1.7351562976837158e+00 }
            -
               depth: 4
               value: 1.
               norm_class_idx: 0
               splits:
                  - { var:49, quality:4.7526317596435547e+01,
                      le:2.4581991195678711e+01 }
            -
               depth: 5
               value: 1.
               norm_class_idx: 0
               splits:
                  - { var:8, quality:2.1003366470336914e+01,
                      le:5.4103869628906250e+02 }
            -
               depth: 6
               value: 6.
               norm_class_idx: 5
               splits:
                  - { var:51, quality:5.5333333015441895e+00,
                      le:6.0761093139648438e+01 }
            -
               depth: 7
               value: 3.
               norm_class_idx: 2
            -
               depth: 7
               value: 6.
               norm_class_idx: 5
            -
               depth: 6
               value: 1.
               norm_class_idx: 0
               splits:
                  - { var:42, quality:2.1090909957885742e+01,
                      le:-3.2804289460182190e-01 }
            -
               depth: 7
               value: 1.
               norm_class_idx: 0
            -
               depth: 7
               value: 1.
               norm_class_idx: 0
               splits:
                  - { var:56, quality:22., le:8.1313377380371094e+01 }
            -
               depth: 8
               value: 3.
               norm_class_idx: 2
            -
               depth: 8
               value: 1.
               norm_class_idx: 0
            -
               depth: 5
               value: 1.
               norm_class_idx: 0
            -
               depth: 4
               value: 3.
               norm_class_idx: 2
            -
               depth: 3
               value: 1.
               norm_class_idx: 0
               splits:
                  - { var:39, quality:8.6666669845581055e+00,
                      le:2.3099174499511719e+00 }
            -
               depth: 4
               value: 4.
               norm_class_idx: 3
            -
               depth: 4
               value: 1.
               norm_class_idx: 0
               splits:
                  - { var:0, quality:7.2923078536987305e+00,
                      le:1.0944406738281250e+03 }
            -
               depth: 5
               value: 1.
               norm_class_idx: 0
               splits:
                  - { var:11, quality:6., le:624. }
            -
               depth: 6
               value: 2.
               norm_class_idx: 1
            -
               depth: 6
               value: 1.
               norm_class_idx: 0
               splits:
                  - { var:0, quality:6.6666665077209473e+00,
                      le:1.0782836914062500e+03 }
            -
               depth: 7
               value: 1.
               norm_class_idx: 0
            -
               depth: 7
               value: 3.
               norm_class_idx: 2
            -
               depth: 5
               value: 7.
               norm_class_idx: 6
            -
               depth: 2
               value: 3.
               norm_class_idx: 2
               splits:
                  - { var:59, quality:7., le:1.5350000000000000e+02 }
            -
               depth: 3
               value: 4.
               norm_class_idx: 3
            -
               depth: 3
               value: 3.
               norm_class_idx: 2
            -
               depth: 1
               value: 6.
               norm_class_idx: 5
               splits:
                  - { var:50, quality:3.6096824645996094e+01,
                      le:8.4010284423828125e+01 }
            -
               depth: 2
               value: 1.
               norm_class_idx: 0
               splits:
                  - { var:15, quality:2.1916835784912109e+01,
                      le:3.4395000000000000e+03 }
            -
               depth: 3
               value: 1.
               norm_class_idx: 0
               splits:
                  - { var:37, quality:1.3990196228027344e+01,
                      le:3.8329079747200012e-01 }
            -
               depth: 4
               value: 6.
               norm_class_idx: 5
               splits:
                  - { var:55, quality:4.2285714149475098e+00,
                      le:3.9050000000000000e+02 }
            -
               depth: 5
               value: 6.
               norm_class_idx: 5
            -
               depth: 5
               value: 1.
               norm_class_idx: 0
            -
               depth: 4
               value: 1.
               norm_class_idx: 0
               splits:
                  - { var:16, quality:1.3375000000000000e+01,
                      le:1.5490151977539063e+02 }
            -
               depth: 5
               value: 1.
               norm_class_idx: 0
               splits:
                  - { var:6, quality:1.3199999809265137e+01,
                      le:8.1450000000000000e+02 }
            -
               depth: 6
               value: 1.
               norm_class_idx: 0
            -
               depth: 6
               value: 1.
               norm_class_idx: 0
            -
               depth: 5
               value: 7.
               norm_class_idx: 6
            -
               depth: 3
               value: 6.
               norm_class_idx: 5
               splits:
                  - { var:36, quality:1.5573122978210449e+01,
                      le:1.3991770744323730e+00 }
            -
               depth: 4
               value: 6.
               norm_class_idx: 5
               splits:
                  - { var:48, quality:1.6883333206176758e+01,
                      le:2.8664512634277344e+01 }
            -
               depth: 5
               value: 1.
               norm_class_idx: 0
            -
               depth: 5
               value: 6.
               norm_class_idx: 5
               splits:
                  - { var:45, quality:15., le:2.7179565429687500e+00 }
            -
               depth: 6
               value: 3.
               norm_class_idx: 2
            -
               depth: 6
               value: 6.
               norm_class_idx: 5
            -
               depth: 4
               value: 1.
               norm_class_idx: 0
               splits:
                  - { var:25, quality:6.2500000000000000e+00,
                      le:3.9398458600044250e-01 }
            -
               depth: 5
               value: 3.
               norm_class_idx: 2
            -
               depth: 5
               value: 1.
               norm_class_idx: 0
            -
               depth: 2
               value: 7.
               norm_class_idx: 6
               splits:
                  - { var:44, quality:2.3829786300659180e+01,
                      le:2.8278688430786133e+01 }
            -
               depth: 3
               value: 7.
               norm_class_idx: 6
               splits:
                  - { var:23, quality:1.9488889694213867e+01,
                      le:1.5695649385452271e-01 }
            -
               depth: 4
               value: 4.
               norm_class_idx: 3
            -
               depth: 4
               value: 7.
               norm_class_idx: 6
               splits:
                  - { var:39, quality:2.1020269393920898e+01,
                      le:4.0165290832519531e+00 }
            -
               depth: 5
               value: 7.
               norm_class_idx: 6
               splits:
                  - { var:59, quality:2.0028572082519531e+01,
                      le:2.1950000000000000e+02 }
            -
               depth: 6
               value: 7.
               norm_class_idx: 6
               splits:
                  - { var:58, quality:2.1687500000000000e+01, le:80. }
            -
               depth: 7
               value: 7.
               norm_class_idx: 6
               splits:
                  - { var:44, quality:2.0600000381469727e+01,
                      le:2.8790698051452637e+00 }
            -
               depth: 8
               value: 5.
               norm_class_idx: 4
            -
               depth: 8
               value: 7.
               norm_class_idx: 6
               splits:
                  - { var:36, quality:2.3111110687255859e+01,
                      le:6.9852113723754883e-01 }
            -
               depth: 9
               value: 6.
               norm_class_idx: 5
            -
               depth: 9
               value: 7.
               norm_class_idx: 6
               splits:
                  - { var:6, quality:2.3230770111083984e+01, le:608. }
            -
               depth: 10
               value: 1.
               norm_class_idx: 0
            -
               depth: 10
               value: 7.
               norm_class_idx: 6
            -
               depth: 7
               value: 6.
               norm_class_idx: 5
            -
               depth: 6
               value: 1.
               norm_class_idx: 0
            -
               depth: 5
               value: 5.
               norm_class_idx: 4
            -
               depth: 3
               value: 6.
               norm_class_idx: 5
               splits:
                  - { var:20, quality:1.1199999809265137e+01,
                      le:2.7640593051910400e-01 }
            -
               depth: 4
               value: 6.
               norm_class_idx: 5
            -
               depth: 4
               value: 5.
               norm_class_idx: 4
      -
         nodes:
            -
               depth: 0
               value: 1.
               norm_class_idx: 0
               splits:
                  - { var:19, quality:6.6050064086914063e+01,
                      le:1.3080889892578125e+02 }
            -
               depth: 1
               value: 1.
               norm_class_idx: 0
               splits:
                  - { var:30, quality:4.1766403198242188e+01,
                      le:-6.9972467422485352e-01 }
            -
               depth: 2
               value: 1.
               norm_class_idx: 0
               splits:
                  - { var:26, quality:3.7245452880859375e+01,
                      le:3.0456060171127319e-01 }
            -
               depth: 3
               value: 1.
               norm_class_idx: 0
               splits:
                  - { var:11, quality:1.3482758522033691e+01, le:822. }
            -
               depth: 4
               value: 1.
               norm_class_idx: 0
               splits:
                  - { var:12, quality:1.2816666603088379e+01,
                      le:4.4913378906250000e+03 }
            -
               depth: 5
               value: 1.
               norm_class_idx: 0
               splits:
                  - { var:52, quality:1.3666666984558105e+01,
                      le:2.8045690917968750e+02 }
            -
               depth: 6
               value: 1.
               norm_class_idx: 0
               splits:
                  - { var:23, quality:1.4500000000000000e+01,
                      le:9.4342941045761108e-01 }
            -
               depth: 7
               value: 3.
               norm_class_idx: 2
            -
               depth: 7
               value: 1.
               norm_class_idx: 0
               splits:
                  - { var:57, quality:16., le:1.6605123519897461e+01 }
            -
               depth: 8
               value: 5.
               norm_class_idx: 4
            -
               depth: 8
               value: 1.
               norm_class_idx: 0
            -
               depth: 6
               value: 6.
               norm_class_idx: 5
            -
               depth: 5
               value: 3.
               norm_class_idx: 2
            -
               depth: 4
               value: 6.
               norm_class_idx: 5
            -
               depth: 3
               value: 1.
               norm_class_idx: 0
               splits:
                  - { var:29, quality:2.9920227050781250e+01,
                      le:5.2363669872283936e-01 }
            -
               depth: 4
               value: 1.
               norm_class_idx: 0
               splits:
                  - { var:29, quality:7.4666666984558105e+00,
                      le:4.9406826496124268e-01 }
            -
               depth: 5
               value: 1.
               norm_class_idx: 0
            -
               depth: 5
               value: 3.
               norm_class_idx: 2
            -
               depth: 4
               value: 1.
               norm_class_idx: 0
               splits:
                  - { var:28, quality:27., le:-3.3660525083541870e-01 }
            -
               depth: 5
               value: 3.
               norm_class_idx: 2
            -
               depth: 5
               value: 1.
               norm_class_idx: 0
            -
               depth: 2
               value: 3.
               norm_class_idx: 2
               splits:
                  - { var:33, quality:1.3804714202880859e+01,
                      le:4.4126868247985840e-02 }
            -
               depth: 3
               value: 3.
               norm_class_idx: 2
               splits:
                  - { var:14, quality:10., le:1.6195000000000000e+03 }
            -
               depth: 4
               value: 4.
               norm_class_idx: 3
            -
               depth: 4
               value: 3.
               norm_class_idx: 2
            -
               depth: 3
               value: 1.
               norm_class_idx: 0
               splits:
                  - { var:42, quality:9.5555553436279297e+00,
                      le:-1.2528103590011597e+00 }
            -
               depth: 4
               value: 1.
               norm_class_idx: 0
            -
               depth: 4
               value: 4.
               norm_class_idx: 3
               splits:
                  - { var:42, quality:7.4545454978942871e+00,
                      le:-7.6857641339302063e-02 }
            -
               depth: 5
               value: 4.
               norm_class_idx: 3
               splits:
                  - { var:30, quality:8., le:-2.7982142567634583e-01 }
            -
               depth: 6
               value: 4.
               norm_class_idx: 3
            -
               depth: 6
               value: 3.
               norm_class_idx: 2
            -
               depth: 5
               value: 6.
               norm_class_idx: 5
            -
               depth: 1
               value: 6.
               norm_class_idx: 5
               splits:
                  - { var:32, quality:3.7443477630615234e+01,
                      le:8.7282311916351318e-01 }
            -
               depth: 2
               value: 6.
               norm_class_idx: 5
               splits:
                  - { var:48, quality:3.6682540893554688e+01,
                      le:1.6578378295898438e+02 }
            -
               depth: 3
               value: 1.
               norm_class_idx: 0
               splits:
                  - { var:51, quality:2.1146667480468750e+01,
                      le:2.5944757080078125e+02 }
            -
               depth: 4
               value: 6.
               norm_class_idx: 5
               splits:
                  - { var:44, quality:1.4484848022460938e+01,
                      le:1.1056586265563965e+01 }
            -
               depth: 5
               value: 6.
               norm_class_idx: 5
               splits:
                  - { var:27, quality:1.5709402084350586e+01,
                      le:3.6057939529418945e+00 }
            -
               depth: 6
               value: 1.
               norm_class_idx: 0
            -
               depth: 6
               value: 6.
               norm_class_idx: 5
               splits:
                  - { var:53, quality:13., le:8.0239784240722656e+01 }
            -
               depth: 7
               value: 6.
               norm_class_idx: 5
            -
               depth: 7
               value: 3.
               norm_class_idx: 2
            -
               depth: 5
               value: 5.
               norm_class_idx: 4
            -
               depth: 4
               value: 1.
               norm_class_idx: 0
               splits:
                  - { var:11, quality:16., le:1.1545000000000000e+03 }
            -
               depth: 5
               value: 3.
               norm_class_idx: 2
               splits:
                  - { var:43, quality:1.0181818008422852e+01,
                      le:6.9797525405883789e+00 }
            -
               depth: 6
               value: 7.
               norm_class_idx: 6
               splits:
                  - { var:43, quality:6.2500000000000000e+00,
                      le:9.3416768312454224e-01 }
            -
               depth: 7
               value: 3.
               norm_class_idx: 2
            -
               depth: 7
               value: 7.
               norm_class_idx: 6
            -
               depth: 6
               value: 3.
               norm_class_idx: 2
            -
               depth: 5
               value: 1.
               norm_class_idx: 0
            -
               depth: 3
               value: 6.
               norm_class_idx: 5
               splits:
                  - { var:16, quality:2.7250000000000000e+01,
                      le:1.4955477905273438e+02 }
            -
               depth: 4
               value: 7.
               norm_class_idx: 6
            -
               depth: 4
               value: 6.
               norm_class_idx: 5
               splits:
                  - { var:11, quality:2.3339622497558594e+01, le:878. }
            -
               depth: 5
               value: 5.
               norm_class_idx: 4
            -
               depth: 5
               value: 6.
               norm_class_idx: 5
               splits:
                  - { var:33, quality:2.4926923751831055e+01,
                      le:1.2354338914155960e-01 }
            -
               depth: 6
               value: 6.
               norm_class_idx: 5
               splits:
                  - { var:3, quality:2.3207206726074219e+01,
                      le:1.1595000000000000e+03 }
            -
               depth: 7
               value: 7.
               norm_class_idx: 6
            -
               depth: 7
               value: 6.
               norm_class_idx: 5
               splits:
                  - { var:22, quality:2.3817647933959961e+01,
                      le:6.4852133393287659e-02 }
            -
               depth: 8
               value: 6.
               norm_class_idx: 5
               splits:
                  - { var:10, quality:16., le:391. }
            -
               depth: 9
               value: 6.
               norm_class_idx: 5
            -
               depth: 9
               value: 6.
               norm_class_idx: 5
            -
               depth: 8
               value: 6.
               norm_class_idx: 5
               splits:
                  - { var:34, quality:1.1054944992065430e+01,
                      le:5.2277588844299316e-01 }
            -
               depth: 9
               value: 7.
               norm_class_idx: 6
               splits:
                  - { var:39, quality:1.1250000000000000e+01,
                      le:3.7396693229675293e+00 }
            -
               depth: 10
               value: 7.
               norm_class_idx: 6
            -
               depth: 10
               value: 6.
               norm_class_idx: 5
            -
               depth: 9
               value: 6.
               norm_class_idx: 5
            -
               depth: 6
               value: 7.
               norm_class_idx: 6
               splits:
                  - { var:34, quality:6.8000001907348633e+00,
                      le:4.2868256568908691e-01 }
            -
               depth: 7
               value: 3.
               norm_class_idx: 2
            -
               depth: 7
               value: 7.
               norm_class_idx: 6
            -
               depth: 2
               value: 5.
               norm_class_idx: 4
      -
         nodes:
            -
               depth: 0
               value: 1.
               norm_class_idx: 0
               splits:
                  - { var:48, quality:6.5014846801757813e+01,
                      le:1.7834207153320313e+02 }
            -
               depth: 1
               value: 1.
               norm_class_idx: 0
               splits:
                  - { var:12, quality:5.4059406280517578e+01,
                      le:3.0640327148437500e+03 }
            -
               depth: 2
               value: 6.
               norm_class_idx: 5
               splits:
                  - { var:36, quality:2.1583333969116211e+01,
                      le:1.3003048896789551e+00 }
            -
               depth: 3
               value: 6.
               norm_class_idx: 5
               splits:
                  - { var:59, quality:2.2809436798095703e+01, le:184. }
            -
               depth: 4
               value: 6.
               norm_class_idx: 5
               splits:
                  - { var:9, quality:1.6803920745849609e+01,
                      le:7.1352111816406250e+01 }
            -
               depth: 5
               value: 6.
               norm_class_idx: 5
               splits:
                  - { var:9, quality:7.1428570747375488e+00,
                      le:4.6979148864746094e+01 }
            -
               depth: 6
               value: 6.
               norm_class_idx: 5
            -
               depth: 6
               value: 1.
               norm_class_idx: 0
            -
               depth: 5
               value: 6.
               norm_class_idx: 5
               splits:
                  - { var:21, quality:1.5125000000000000e+01,
                      le:2.1952807903289795e-01 }
            -
               depth: 6
               value: 6.
               norm_class_idx: 5
               splits:
                  - { var:28, quality:16., le:9.6976923942565918e-01 }
            -
               depth: 7
               value: 6.
               norm_class_idx: 5
            -
               depth: 7
               value: 1.
               norm_class_idx: 0
            -
               depth: 6
               value: 1.
               norm_class_idx: 0
            -
               depth: 4
               value: 1.
               norm_class_idx: 0
               splits:
                  - { var:27, quality:1.0833333015441895e+01,
                      le:3.9276161193847656e+00 }
            -
               depth: 5
               value: 6.
               norm_class_idx: 5
               splits:
                  - { var:2, quality:7.7500000000000000e+00, le:988. }
            -
               depth: 6
               value: 1.
               norm_class_idx: 0
            -
               depth: 6
               value: 6.
               norm_class_idx: 5
            -
               depth: 5
               value: 1.
               norm_class_idx: 0
            -
               depth: 3
               value: 3.
               norm_class_idx: 2
               splits:
                  - { var:16, quality:6., le:6.8106384277343750e+01 }
            -
               depth: 4
               value: 3.
               norm_class_idx: 2
            -
               depth: 4
               value: 1.
               norm_class_idx: 0
            -
               depth: 2
               value: 1.
               norm_class_idx: 0
               splits:
                  - { var:26, quality:4.5332565307617188e+01,
                      le:2.0787709951400757e-01 }
            -
               depth: 3
               value: 3.
               norm_class_idx: 2
               splits:
                  - { var:14, quality:1.1388889312744141e+01,
                      le:1.9025000000000000e+03 }
            -
               depth: 4
               value: 3.
               norm_class_idx: 2
               splits:
                  - { var:37, quality:1.3066666603088379e+01,
                      le:1.1077558994293213e+00 }
            -
               depth: 5
               value: 3.
               norm_class_idx: 2
               splits:
                  - { var:57, quality:1.3142857551574707e+01,
                      le:1.8759735107421875e+01 }
            -
               depth: 6
               value: 1.
               norm_class_idx: 0
            -
               depth: 6
               value: 3.
               norm_class_idx: 2
               splits:
                  - { var:29, quality:14., le:3.6180084943771362e-01 }
            -
               depth: 7
               value: 6.
               norm_class_idx: 5
            -
               depth: 7
               value: 3.
               norm_class_idx: 2
            -
               depth: 5
               value: 4.
               norm_class_idx: 3
            -
               depth: 4
               value: 5.
               norm_class_idx: 4
            -
               depth: 3
               value: 1.
               norm_class_idx: 0
               splits:
                  - { var:18, quality:4.0205406188964844e+01,
                      le:8.3958616256713867e+00 }
            -
               depth: 4
               value: 4.
               norm_class_idx: 3
            -
               depth: 4
               value: 1.
               norm_class_idx: 0
               splits:
                  - { var:29, quality:4.0138889312744141e+01,
                      le:1.1879820376634598e-01 }
            -
               depth: 5
               value: 3.
               norm_class_idx: 2
            -
               depth: 5
               value: 1.
               norm_class_idx: 0
               splits:
                  - { var:59, quality:4.2338413238525391e+01,
                      le:1.7450000000000000e+02 }
            -
               depth: 6
               value: 1.
               norm_class_idx: 0
               splits:
                  - { var:45, quality:1.6133333206176758e+01,
                      le:8.4591703414916992e+00 }
            -
               depth: 7
               value: 3.
               norm_class_idx: 2
               splits:
                  - { var:54, quality:9.1999998092651367e+00,
                      le:1.4150000000000000e+02 }
            -
               depth: 8
               value: 1.
               norm_class_idx: 0
            -
               depth: 8
               value: 3.
               norm_class_idx: 2
            -
               depth: 7
               value: 1.
               norm_class_idx: 0
               splits:
                  - { var:1, quality:1.2666666984558105e+01,
                      le:1.9383941650390625e+01 }
            -
               depth: 8
               value: 1.
               norm_class_idx: 0
            -
               depth: 8
               value: 6.
               norm_class_idx: 5
            -
               depth: 6
               value: 1.
               norm_class_idx: 0
               splits:
                  - { var:1, quality:3.3064517974853516e+01,
                      le:1.6489610671997070e+01 }
            -
               depth: 7
               value: 1.
               norm_class_idx: 0
               splits:
                  - { var:56, quality:7.0857143402099609e+00,
                      le:1.1807936096191406e+02 }
            -
               depth: 8
               value: 4.
               norm_class_idx: 3
            -
               depth: 8
               value: 1.
               norm_class_idx: 0
            -
               depth: 7
               value: 1.
               norm_class_idx: 0
               splits:
                  - { var:25, quality:31., le:1.1031479835510254e+00 }
            -
               depth: 8
               value: 1.
               norm_class_idx: 0
            -
               depth: 8
               value: 6.
               norm_class_idx: 5
            -
               depth: 1
               value: 6.
               norm_class_idx: 5
               splits:
                  - { var:33, quality:2.6284746170043945e+01,
                      le:1.2943498790264130e-01 }
            -
               depth: 2
               value: 6.
               norm_class_idx: 5
               splits:
                  - { var:17, quality:2.2747966766357422e+01,
                      le:1.7026725769042969e+01 }
            -
               depth: 3
               value: 7.
               norm_class_idx: 6
               splits:
                  - { var:53, quality:1.7138889312744141e+01,
                      le:5.0096233367919922e+01 }
            -
               depth: 4
               value: 6.
               norm_class_idx: 5
            -
               depth: 4
               value: 7.
               norm_class_idx: 6
               splits:
                  - { var:47, quality:1.4637037277221680e+01,
                      le:1.4978402709960938e+02 }
            -
               depth: 5
               value: 7.
               norm_class_idx: 6
               splits:
                  - { var:17, quality:1.5047618865966797e+01,
                      le:9.2424488067626953e+00 }
            -
               depth: 6
               value: 6.
               norm_class_idx: 5
            -
               depth: 6
               value: 7.
               norm_class_idx: 6
               splits:
                  - { var:7, quality:1.7333333969116211e+01, le:965. }
            -
               depth: 7
               value: 3.
               norm_class_idx: 2
            -
               depth: 7
               value: 7.
               norm_class_idx: 6
               splits:
                  - { var:35, quality:17., le:7.2892558574676514e-01 }
            -
               depth: 8
               value: 4.
               norm_class_idx: 3
            -
               depth: 8
               value: 7.
               norm_class_idx: 6
            -
               depth: 5
               value: 6.
               norm_class_idx: 5
            -
               depth: 3
               value: 6.
               norm_class_idx: 5
               splits:
                  - { var:36, quality:1.2753246307373047e+01,
                      le:1.8262190818786621e+00 }
            -
               depth: 4
               value: 1.
               norm_class_idx: 0
            -
               depth: 4
               value: 6.
               norm_class_idx: 5
               splits:
                  - { var:8, quality:11., le:8.0905426025390625e+02 }
            -
               depth: 5
               value: 7.
               norm_class_idx: 6
            -
               depth: 5
               value: 6.
               norm_class_idx: 5
            -
               depth: 2
               value: 5.
               norm_class_idx: 4
      -
         nodes:
            -
               depth: 0
               value: 1.
               norm_class_idx: 0
               splits:
                  - { var:15, quality:6.9804611206054688e+01, le:3325. }
            -
               depth: 1
               value: 6.
               norm_class_idx: 5
               splits:
                  - { var:9, quality:3.4404819488525391e+01,
                      le:2.0776821899414063e+02 }
            -
               depth: 2
               value: 6.
               norm_class_idx: 5
               splits:
                  - { var:14, quality:3.0563491821289063e+01, le:711. }
            -
               depth: 3
               value: 7.
               norm_class_idx: 6
               splits:
                  - { var:34, quality:1.3266666412353516e+01,
                      le:4.7328633069992065e-01 }
            -
               depth: 4
               value: 6.
               norm_class_idx: 5
               splits:
                  - { var:3, quality:7.7857141494750977e+00, le:1204. }
            -
               depth: 5
               value: 6.
               norm_class_idx: 5
            -
               depth: 5
               value: 1.
               norm_class_idx: 0
            -
               depth: 4
               value: 7.
               norm_class_idx: 6
               splits:
                  - { var:41, quality:12., le:2.9694542884826660e+00 }
            -
               depth: 5
               value: 7.
               norm_class_idx: 6
            -
               depth: 5
               value: 5.
               norm_class_idx: 4
            -
               depth: 3
               value: 6.
               norm_class_idx: 5
               splits:
                  - { var:57, quality:2.6200000762939453e+01,
                      le:2.4343242645263672e+01 }
            -
               depth: 4
               value: 6.
               norm_class_idx: 5
               splits:
                  - { var:54, quality:2.7787878036499023e+01,
                      le:1.9450000000000000e+02 }
            -
               depth: 5
               value: 6.
               norm_class_idx: 5
               splits:
                  - { var:19, quality:2.7571428298950195e+01,
                      le:1.1615419769287109e+02 }
            -
               depth: 6
               value: 1.
               norm_class_idx: 0
            -
               depth: 6
               value: 6.
               norm_class_idx: 5
               splits:
                  - { var:31, quality:2.9700000762939453e+01,
                      le:5.4863724708557129e+00 }
            -
               depth: 7
               value: 6.
               norm_class_idx: 5
               splits:
                  - { var:15, quality:2.8676691055297852e+01, le:2546. }
            -
               depth: 8
               value: 6.
               norm_class_idx: 5
               splits:
                  - { var:8, quality:1.3899999618530273e+01,
                      le:9.1118585205078125e+02 }
            -
               depth: 9
               value: 7.
               norm_class_idx: 6
            -
               depth: 9
               value: 6.
               norm_class_idx: 5
               splits:
                  - { var:14, quality:1.4133333206176758e+01, le:857. }
            -
               depth: 10
               value: 7.
               norm_class_idx: 6
            -
               depth: 10
               value: 6.
               norm_class_idx: 5
            -
               depth: 8
               value: 6.
               norm_class_idx: 5
               splits:
                  - { var:24, quality:18., le:3.4293277263641357e+00 }
            -
               depth: 9
               value: 6.
               norm_class_idx: 5
            -
               depth: 9
               value: 5.
               norm_class_idx: 4
            -
               depth: 7
               value: 5.
               norm_class_idx: 4
            -
               depth: 5
               value: 3.
               norm_class_idx: 2
            -
               depth: 4
               value: 1.
               norm_class_idx: 0
            -
               depth: 2
               value: 7.
               norm_class_idx: 6
            -
               depth: 1
               value: 1.
               norm_class_idx: 0
               splits:
                  - { var:12, quality:4.9196849822998047e+01,
                      le:2.2166567382812500e+03 }
            -
               depth: 2
               value: 6.
               norm_class_idx: 5
               splits:
                  - { var:56, quality:9.8666667938232422e+00,
                      le:1.1143183898925781e+02 }
            -
               depth: 3
               value: 7.
               norm_class_idx: 6
            -
               depth: 3
               value: 6.
               norm_class_idx: 5
            -
               depth: 2
               value: 1.
               norm_class_idx: 0
               splits:
                  - { var:14, quality:4.6648647308349609e+01, le:2942. }
            -
               depth: 3
               value: 1.
               norm_class_idx: 0
               splits:
                  - { var:41, quality:4.5450084686279297e+01,
                      le:2.2123937606811523e+00 }
            -
               depth: 4
               value: 1.
               norm_class_idx: 0
               splits:
                  - { var:16, quality:3.9419048309326172e+01,
                      le:5.3587554931640625e+01 }
            -
               depth: 5
               value: 1.
               norm_class_idx: 0
               splits:
                  - { var:8, quality:3.5991523742675781e+01,
                      le:5.0767309570312500e+02 }
            -
               depth: 6
               value: 6.
               norm_class_idx: 5
            -
               depth: 6
               value: 1.
               norm_class_idx: 0
               splits:
                  - { var:15, quality:3.7280700683593750e+01,
                      le:5.1265000000000000e+03 }
            -
               depth: 7
               value: 1.
               norm_class_idx: 0
               splits:
                  - { var:50, quality:3.8272727966308594e+01,
                      le:-2.7641880512237549e-01 }
            -
               depth: 8
               value: 4.
               norm_class_idx: 3
            -
               depth: 8
               value: 1.
               norm_class_idx: 0
               splits:
                  - { var:24, quality:3.8528301239013672e+01,
                      le:3.5365884304046631e+00 }
            -
               depth: 9
               value: 1.
               norm_class_idx: 0
               splits:
                  - { var:38, quality:3.9192306518554688e+01,
                      le:1.4132231473922729e+00 }
            -
               depth: 10
               value: 1.
               norm_class_idx: 0
            -
               depth: 10
               value: 4.
               norm_class_idx: 3
            -
               depth: 9
               value: 4.
               norm_class_idx: 3
            -
               depth: 7
               value: 4.
               norm_class_idx: 3
            -
               depth: 5
               value: 6.
               norm_class_idx: 5
               splits:
                  - { var:37, quality:1.1538461685180664e+01,
                      le:5.4225999116897583e-01 }
            -
               depth: 6
               value: 6.
               norm_class_idx: 5
            -
               depth: 6
               value: 1.
               norm_class_idx: 0
               splits:
                  - { var:49, quality:8.0500001907348633e+00,
                      le:5.4770217895507813e+01 }
            -
               depth: 7
               value: 4.
               norm_class_idx: 3
            -
               depth: 7
               value: 1.
               norm_class_idx: 0
            -
               depth: 4
               value: 3.
               norm_class_idx: 2
               splits:
                  - { var:39, quality:1.4511111259460449e+01,
                      le:4.1570248603820801e+00 }
            -
               depth: 5
               value: 3.
               norm_class_idx: 2
               splits:
                  - { var:7, quality:1.1600000381469727e+01, le:947. }
            -
               depth: 6
               value: 1.
               norm_class_idx: 0
            -
               depth: 6
               value: 3.
               norm_class_idx: 2
               splits:
                  - { var:51, quality:1.2500000000000000e+01,
                      le:4.0858224487304688e+02 }
            -
               depth: 7
               value: 3.
               norm_class_idx: 2
            -
               depth: 7
               value: 1.
               norm_class_idx: 0
            -
               depth: 5
               value: 1.
               norm_class_idx: 0
            -
               depth: 3
               value: 3.
               norm_class_idx: 2
               splits:
                  - { var:13, quality:8.8888893127441406e+00,
                      le:2.2623199462890625e+02 }
            -
               depth: 4
               value: 1.
               norm_class_idx: 0
            -
               depth: 4
               value: 3.
               norm_class_idx: 2
      -
         nodes:
            -
               depth: 0
               value: 1.
               norm_class_idx: 0
               splits:
                  - { var:16, quality:6.4729377746582031e+01,
                      le:5.3587554931640625e+01 }
            -
               depth: 1
               value: 1.
               norm_class_idx: 0
               splits:
                  - { var:14, quality:3.6189392089843750e+01,
                      le:3.2245000000000000e+03 }
            -
               depth: 2
               value: 1.
               norm_class_idx: 0
               splits:
                  - { var:20, quality:3.7873416900634766e+01,
                      le:1.1397348344326019e-01 }
            -
               depth: 3
               value: 3.
               norm_class_idx: 2
            -
               depth: 3
               value: 1.
               norm_class_idx: 0
               splits:
                  - { var:27, quality:3.4035163879394531e+01,
                      le:4.2366437911987305e+00 }
            -
               depth: 4
               value: 1.
               norm_class_idx: 0
               splits:
                  - { var:29, quality:3.4276317596435547e+01,
                      le:1.6434407234191895e+00 }
            -
               depth: 5
               value: 1.
               norm_class_idx: 0
               splits:
                  - { var:15, quality:3.2954544067382813e+01, le:4127. }
            -
               depth: 6
               value: 1.
               norm_class_idx: 0
               splits:
                  - { var:58, quality:2.1090909957885742e+01, le:49. }
            -
               depth: 7
               value: 2.
               norm_class_idx: 1
            -
               depth: 7
               value: 1.
               norm_class_idx: 0
               splits:
                  - { var:25, quality:2.0666666030883789e+01,
                      le:3.5531783103942871e-01 }
            -
               depth: 8
               value: 1.
               norm_class_idx: 0
            -
               depth: 8
               value: 1.
               norm_class_idx: 0
            -
               depth: 6
               value: 1.
               norm_class_idx: 0
               splits:
                  - { var:48, quality:2.0181818008422852e+01,
                      le:2.3745395660400391e+01 }
            -
               depth: 7
               value: 1.
               norm_class_idx: 0
               splits:
                  - { var:0, quality:1.6700000762939453e+01,
                      le:1.0766745605468750e+03 }
            -
               depth: 8
               value: 3.
               norm_class_idx: 2
            -
               depth: 8
               value: 1.
               norm_class_idx: 0
               splits:
                  - { var:14, quality:1.6784313201904297e+01, le:1103. }
            -
               depth: 9
               value: 3.
               norm_class_idx: 2
            -
               depth: 9
               value: 1.
               norm_class_idx: 0
               splits:
                  - { var:10, quality:16., le:4.8650000000000000e+02 }
            -
               depth: 10
               value: 1.
               norm_class_idx: 0
            -
               depth: 10
               value: 1.
               norm_class_idx: 0
            -
               depth: 7
               value: 3.
               norm_class_idx: 2
               splits:
                  - { var:33, quality:8.2222223281860352e+00,
                      le:1.1568623781204224e-01 }
            -
               depth: 8
               value: 3.
               norm_class_idx: 2
            -
               depth: 8
               value: 1.
               norm_class_idx: 0
            -
               depth: 5
               value: 3.
               norm_class_idx: 2
            -
               depth: 4
               value: 6.
               norm_class_idx: 5
               splits:
                  - { var:16, quality:7.4545454978942871e+00,
                      le:3.7829154968261719e+01 }
            -
               depth: 5
               value: 6.
               norm_class_idx: 5
               splits:
                  - { var:5, quality:8., le:4.5839004516601563e+01 }
            -
               depth: 6
               value: 6.
               norm_class_idx: 5
            -
               depth: 6
               value: 1.
               norm_class_idx: 0
            -
               depth: 5
               value: 4.
               norm_class_idx: 3
            -
               depth: 2
               value: 5.
               norm_class_idx: 4
            -
               depth: 1
               value: 6.
               norm_class_idx: 5
               splits:
                  - { var:3, quality:4.1368419647216797e+01,
                      le:1.1825000000000000e+03 }
            -
               depth: 2
               value: 6.
               norm_class_idx: 5
               splits:
                  - { var:32, quality:1.6917646408081055e+01,
                      le:6.4850974082946777e-01 }
            -
               depth: 3
               value: 6.
               norm_class_idx: 5
            -
               depth: 3
               value: 6.
               norm_class_idx: 5
               splits:
                  - { var:12, quality:1.5666666984558105e+01,
                      le:3.0009677734375000e+03 }
            -
               depth: 4
               value: 6.
               norm_class_idx: 5
            -
               depth: 4
               value: 6.
               norm_class_idx: 5
            -
               depth: 2
               value: 6.
               norm_class_idx: 5
               splits:
                  - { var:50, quality:3.3986251831054688e+01,
                      le:8.4677551269531250e+01 }
            -
               depth: 3
               value: 1.
               norm_class_idx: 0
               splits:
                  - { var:42, quality:1.9773399353027344e+01,
                      le:-1.3086187839508057e+00 }
            -
               depth: 4
               value: 1.
               norm_class_idx: 0
               splits:
                  - { var:47, quality:1.8188888549804688e+01,
                      le:4.6124114990234375e+01 }
            -
               depth: 5
               value: 1.
               norm_class_idx: 0
               splits:
                  - { var:47, quality:1.8105262756347656e+01,
                      le:1.3502767562866211e+01 }
            -
               depth: 6
               value: 6.
               norm_class_idx: 5
            -
               depth: 6
               value: 1.
               norm_class_idx: 0
               splits:
                  - { var:44, quality:1.7500000000000000e+01,
                      le:4.5616683959960938e+00 }
            -
               depth: 7
               value: 1.
               norm_class_idx: 0
            -
               depth: 7
               value: 1.
               norm_class_idx: 0
            -
               depth: 5
               value: 6.
               norm_class_idx: 5
            -
               depth: 4
               value: 6.
               norm_class_idx: 5
               splits:
                  - { var:1, quality:9.4750003814697266e+00,
                      le:1.7869251251220703e+01 }
            -
               depth: 5
               value: 4.
               norm_class_idx: 3
            -
               depth: 5
               value: 6.
               norm_class_idx: 5
               splits:
                  - { var:36, quality:1.0981818199157715e+01,
                      le:1.4039186239242554e+00 }
            -
               depth: 6
               value: 6.
               norm_class_idx: 5
               splits:
                  - { var:46, quality:10., le:1.1775259673595428e-01 }
            -
               depth: 7
               value: 2.
               norm_class_idx: 1
            -
               depth: 7
               value: 6.
               norm_class_idx: 5
            -
               depth: 6
               value: 1.
               norm_class_idx: 0
            -
               depth: 3
               value: 6.
               norm_class_idx: 5
               splits:
                  - { var:26, quality:2.4987134933471680e+01,
                      le:2.3768112659454346e+00 }
            -
               depth: 4
               value: 6.
               norm_class_idx: 5
               splits:
                  - { var:9, quality:1.9500000000000000e+01,
                      le:1.1225537109375000e+02 }
            -
               depth: 5
               value: 6.
               norm_class_idx: 5
               splits:
                  - { var:47, quality:1.8655172348022461e+01,
                      le:1.5578390502929688e+02 }
            -
               depth: 6
               value: 6.
               norm_class_idx: 5
               splits:
                  - { var:28, quality:1.7740385055541992e+01,
                      le:1.0975153744220734e-01 }
            -
               depth: 7
               value: 6.
               norm_class_idx: 5
               splits:
                  - { var:16, quality:16., le:1.7882849121093750e+02 }
            -
               depth: 8
               value: 6.
               norm_class_idx: 5
            -
               depth: 8
               value: 7.
               norm_class_idx: 6
            -
               depth: 7
               value: 6.
               norm_class_idx: 5
               splits:
                  - { var:6, quality:6.5555553436279297e+00,
                      le:7.6950000000000000e+02 }
            -
               depth: 8
               value: 5.
               norm_class_idx: 4
            -
               depth: 8
               value: 6.
               norm_class_idx: 5
            -
               depth: 6
               value: 5.
               norm_class_idx: 4
            -
               depth: 5
               value: 7.
               norm_class_idx: 6
               splits:
                  - { var:48, quality:8.8888893127441406e+00,
                      le:4.2401745605468750e+02 }
            -
               depth: 6
               value: 7.
               norm_class_idx: 6
            -
               depth: 6
               value: 1.
               norm_class_idx: 0
            -
               depth: 4
               value: 7.
               norm_class_idx: 6
               splits:
                  - { var:32, quality:1.5500000000000000e+01,
                      le:5.4608500003814697e-01 }
            -
               depth: 5
               value: 6.
               norm_class_idx: 5
            -
               depth: 5
               value: 7.
               norm_class_idx: 6
               splits:
